<?xml version="1.0"?>
<opencv_storage>
<opencv_ml_svm>
  <format>3</format>
  <svmType>NU_SVC</svmType>
  <kernel>
    <type>CHI2</type>
    <gamma>1.0000000000000001e-005</gamma></kernel>
  <nu>1.0000000000000000e-002</nu>
  <term_criteria><iterations>100000</iterations></term_criteria>
  <var_count>315</var_count>
  <class_count>2</class_count>
  <class_labels type_id="opencv-matrix">
    <rows>2</rows>
    <cols>1</cols>
    <dt>i</dt>
    <data>
      -1 1</data></class_labels>
  <sv_total>271</sv_total>
  <support_vectors>
    <_>
      0. 0. 0. 0. 0. 0. 0. 0. 0. 0. 0. 0. 0. 0. 0. 0. 0. 0. 0. 0. 0. 0.
      0. 0. 0. 0. 0. 0. 0. 0. 0. 0. 0. 0. 1. 0. 3. 7. 4. 3. 9. 16. 16.
      17. 21. 35. 37. 62. 80. 98. 115. 133. 166. 136. 153. 177. 196.
      172. 191. 183. 178. 215. 182. 208. 205. 221. 225. 267. 266. 244.
      260. 255. 199. 224. 224. 226. 223. 245. 251. 284. 273. 271. 299.
      337. 351. 380. 396. 439. 476. 471. 525. 531. 563. 570. 592. 579.
      569. 558. 598. 584. 596. 637. 628. 682. 681. 755. 755. 747. 773.
      798. 864. 863. 900. 879. 924. 897. 926. 891. 923. 949. 984. 1073.
      1071. 1085. 1075. 1160. 1175. 1184. 1153. 1081. 1132. 1185. 1168.
      1177. 1159. 1163. 1194. 1227. 1210. 1183. 1124. 1173. 1219. 1252.
      1178. 1164. 1194. 1181. 1256. 1257. 1255. 1302. 1375. 1425. 1385.
      1446. 1468. 1466. 1527. 1561. 1629. 1514. 1608. 1685. 1666. 1718.
      1798. 1867. 1888. 2023. 2017. 1977. 2093. 2154. 2131. 2222. 2162.
      2338. 2350. 2440. 2400. 2476. 2532. 2584. 2510. 2443. 2357. 2250.
      2157. 2181. 2097. 1957. 1855. 1856. 1806. 1803. 1920. 1903. 1840.
      1884. 1841. 1825. 1850. 1791. 1786. 1737. 1673. 1623. 1538. 1590.
      1595. 1582. 1568. 1532. 1554. 1619. 1654. 1701. 1765. 1892. 1760.
      1821. 1763. 1754. 1795. 1838. 1856. 1923. 1985. 2024. 1943. 1935.
      1957. 1977. 1818. 1676. 1595. 1509. 1314. 1322. 1175. 1185. 1043.
      965. 862. 708. 563. 451. 311. 268. 203. 160. 140. 125. 125. 0.
      323. 67. 31. 53. 76. 54. 68. 34. 58. 53. 34. 67. 67. 70. 61. 26.
      44. 70. 80. 90. 61. 35. 71. 53. 53. 52. 37. 41. 8. 44. 69. 50. 39.
      64. 35. 47. 46. 89. 60. 32. 28. 5. 64. 79. 57. 36. 34. 55. 40. 32.
      8. 59. 37. 31. 38. 14. 32. 106. 677.</_>
    <_>
      0. 0. 0. 0. 0. 0. 0. 0. 0. 0. 0. 0. 0. 0. 0. 0. 0. 0. 0. 0. 0. 0.
      0. 0. 0. 0. 1. 0. 0. 0. 0. 0. 0. 0. 1. 2. 1. 2. 2. 2. 4. 2. 7. 5.
      7. 9. 14. 19. 19. 24. 28. 38. 52. 62. 60. 77. 91. 128. 135. 140.
      156. 160. 173. 178. 168. 162. 171. 206. 177. 169. 190. 160. 180.
      178. 161. 199. 181. 189. 209. 217. 224. 254. 273. 263. 341. 332.
      392. 395. 393. 389. 430. 393. 460. 495. 509. 504. 536. 503. 569.
      573. 560. 570. 592. 604. 608. 655. 634. 691. 704. 695. 707. 707.
      719. 665. 722. 679. 698. 719. 748. 736. 710. 736. 719. 790. 819.
      807. 773. 866. 940. 855. 866. 901. 925. 955. 969. 1011. 1006.
      1022. 1027. 1090. 1077. 1103. 1146. 1165. 1141. 1148. 1145. 1226.
      1121. 1169. 1260. 1274. 1228. 1216. 1298. 1291. 1389. 1377. 1383.
      1466. 1439. 1493. 1555. 1460. 1450. 1552. 1514. 1665. 1658. 1711.
      1808. 1723. 1796. 1924. 1990. 1930. 2009. 2064. 2156. 2346. 2374.
      2462. 2528. 2519. 2575. 2672. 2580. 2559. 2443. 2420. 2253. 2276.
      2089. 1950. 1939. 1923. 1841. 1636. 1654. 1712. 1638. 1651. 1589.
      1563. 1469. 1537. 1502. 1551. 1651. 1700. 1630. 1587. 1518. 1540.
      1555. 1539. 1503. 1506. 1440. 1505. 1478. 1539. 1573. 1664. 1666.
      1761. 1666. 1750. 1704. 1640. 1700. 1609. 1648. 1604. 1601. 1606.
      1573. 1646. 1482. 1650. 1583. 1643. 1497. 1411. 1301. 1126. 944.
      830. 683. 546. 478. 306. 269. 225. 198. 0. 324. 55. 41. 63. 51.
      45. 56. 37. 45. 39. 47. 65. 61. 66. 63. 22. 46. 73. 69. 76. 62.
      22. 60. 58. 69. 67. 40. 32. 13. 45. 70. 87. 82. 61. 30. 33. 71.
      77. 74. 54. 34. 11. 56. 80. 63. 34. 49. 46. 29. 26. 10. 68. 22.
      41. 29. 9. 40. 90. 656.</_>
    <_>
      0. 0. 0. 0. 0. 0. 0. 0. 0. 0. 0. 0. 0. 0. 0. 0. 0. 0. 0. 0. 0. 0.
      0. 0. 0. 0. 0. 0. 0. 0. 0. 0. 0. 0. 0. 0. 0. 1. 4. 9. 26. 43. 70.
      118. 115. 177. 216. 203. 220. 187. 205. 185. 202. 193. 204. 242.
      281. 290. 282. 307. 336. 316. 321. 307. 322. 333. 328. 299. 323.
      342. 369. 429. 405. 407. 471. 463. 465. 500. 497. 522. 544. 536.
      569. 552. 541. 569. 564. 540. 636. 645. 560. 617. 600. 649. 582.
      646. 655. 679. 657. 674. 714. 681. 684. 683. 703. 750. 854. 856.
      898. 946. 949. 992. 1098. 860. 1004. 986. 983. 1011. 1137. 1114.
      1225. 1154. 1080. 1189. 1161. 1195. 1184. 1142. 1121. 1033. 1183.
      1183. 1164. 1221. 1307. 1271. 1349. 1444. 1444. 1477. 1514. 1625.
      1660. 1569. 1570. 1510. 1577. 1534. 1611. 1552. 1642. 1687. 1704.
      1767. 1775. 1802. 1841. 1906. 1939. 2002. 2032. 2154. 2079. 2260.
      2300. 2356. 2346. 2358. 2348. 2379. 2208. 2173. 2194. 2162. 2193.
      2226. 2141. 2248. 2183. 2357. 2328. 2429. 2398. 2341. 2287. 2350.
      2442. 2381. 2413. 2421. 2485. 2396. 2245. 2163. 2187. 2166. 2220.
      2128. 2247. 2202. 2333. 2278. 2236. 2217. 2198. 2250. 2164. 2170.
      2248. 2266. 2076. 2079. 2105. 2090. 1895. 1797. 1800. 1777. 1755.
      1625. 1557. 1459. 1358. 1378. 1366. 1217. 1108. 951. 914. 965.
      908. 888. 773. 692. 580. 495. 401. 332. 215. 142. 103. 62. 29. 28.
      12. 3. 2. 1. 0. 1. 2. 0. 0. 1. 0. 0. 340. 60. 38. 59. 56. 46. 78.
      50. 67. 55. 53. 62. 67. 76. 32. 22. 39. 61. 86. 79. 83. 35. 64.
      72. 74. 73. 42. 21. 7. 52. 71. 75. 69. 53. 19. 27. 67. 75. 80. 37.
      27. 9. 69. 69. 66. 31. 37. 64. 26. 23. 10. 54. 27. 32. 34. 15. 37.
      81. 611.</_>
    <_>
      0. 0. 0. 0. 0. 0. 0. 0. 0. 0. 0. 0. 0. 0. 0. 0. 0. 0. 0. 0. 0. 0.
      0. 0. 0. 0. 0. 0. 0. 0. 0. 0. 2. 0. 4. 4. 10. 14. 21. 33. 52. 60.
      74. 87. 107. 112. 112. 151. 181. 200. 180. 169. 178. 230. 229.
      264. 276. 299. 301. 286. 315. 290. 313. 290. 315. 296. 327. 309.
      310. 300. 340. 374. 414. 436. 421. 426. 492. 511. 514. 502. 536.
      540. 556. 516. 544. 528. 562. 568. 623. 605. 564. 604. 594. 618.
      639. 664. 692. 701. 717. 699. 760. 689. 730. 750. 757. 860. 852.
      843. 896. 910. 902. 1016. 1098. 938. 1058. 1079. 1091. 1179. 1146.
      1205. 1120. 1204. 1119. 1089. 1148. 1117. 1230. 1111. 1102. 1117.
      1165. 1140. 1214. 1195. 1162. 1267. 1326. 1392. 1369. 1499. 1541.
      1561. 1609. 1625. 1690. 1599. 1709. 1700. 1728. 1648. 1670. 1684.
      1637. 1636. 1639. 1709. 1698. 1769. 1762. 1884. 1852. 1929. 1981.
      1979. 2042. 2237. 2205. 2310. 2249. 2235. 2103. 2040. 2164. 2067.
      2124. 2144. 2134. 2245. 2080. 2321. 2291. 2281. 2392. 2397. 2478.
      2462. 2454. 2424. 2462. 2389. 2290. 2450. 2297. 2336. 2221. 2197.
      2081. 2185. 2145. 2147. 2133. 2126. 2144. 2260. 2291. 2287. 2320.
      2293. 2182. 2357. 2283. 2240. 2262. 2228. 2230. 2149. 2089. 1968.
      1881. 1856. 1792. 1888. 1791. 1656. 1519. 1399. 1285. 1142. 1095.
      1151. 1051. 1105. 1052. 868. 844. 724. 665. 530. 435. 321. 268.
      192. 130. 78. 51. 20. 10. 8. 4. 1. 1. 1. 2. 0. 0. 0. 346. 69. 46.
      71. 58. 51. 61. 37. 51. 60. 45. 49. 70. 52. 50. 19. 43. 75. 83.
      73. 63. 27. 65. 60. 76. 77. 45. 34. 12. 43. 62. 96. 81. 63. 31.
      26. 63. 74. 88. 53. 20. 7. 66. 56. 60. 27. 35. 42. 29. 32. 10. 60.
      27. 26. 27. 12. 25. 84. 651.</_>
    <_>
      0. 0. 0. 0. 0. 0. 0. 0. 0. 0. 0. 0. 0. 0. 0. 0. 0. 0. 0. 0. 0. 0.
      1. 0. 0. 0. 0. 1. 0. 0. 0. 2. 1. 1. 2. 1. 3. 5. 17. 14. 26. 20.
      48. 54. 58. 93. 105. 131. 150. 144. 187. 157. 181. 184. 213. 204.
      214. 239. 243. 266. 273. 295. 319. 312. 339. 351. 376. 385. 362.
      440. 401. 447. 486. 443. 473. 528. 498. 532. 542. 549. 523. 528.
      591. 500. 543. 557. 590. 604. 550. 595. 630. 554. 606. 637. 598.
      729. 719. 723. 757. 803. 834. 822. 797. 944. 922. 948. 988. 1010.
      1000. 1027. 1067. 1052. 1150. 1003. 1066. 1095. 1088. 1158. 1135.
      1201. 1118. 1107. 1106. 1193. 1143. 1113. 1162. 1202. 1228. 1080.
      1177. 1200. 1184. 1172. 1324. 1282. 1318. 1375. 1429. 1426. 1454.
      1610. 1633. 1741. 1772. 1750. 1741. 1658. 1746. 1585. 1637. 1564.
      1568. 1610. 1656. 1645. 1651. 1720. 1793. 1875. 2008. 2002. 2116.
      2161. 2080. 2167. 2151. 2114. 2044. 2047. 2051. 1937. 2062. 1883.
      1995. 2056. 2022. 2105. 1973. 2183. 2196. 2097. 2183. 2158. 2147.
      2172. 2259. 2238. 2305. 2284. 2328. 2343. 2329. 2251. 2340. 2375.
      2509. 2378. 2317. 2461. 2370. 2373. 2379. 2361. 2498. 2382. 2350.
      2529. 2411. 2380. 2611. 2582. 2482. 2462. 2404. 2503. 2357. 2356.
      2388. 2292. 2139. 2130. 1939. 1822. 1748. 1618. 1493. 1478. 1326.
      1280. 1233. 1215. 1182. 1062. 1013. 816. 682. 541. 404. 318. 234.
      142. 129. 81. 50. 35. 29. 14. 5. 5. 1. 0. 0. 0. 0. 0. 357. 67. 42.
      72. 69. 62. 54. 37. 44. 47. 66. 62. 47. 75. 58. 26. 49. 68. 88.
      85. 79. 22. 53. 59. 57. 56. 34. 31. 4. 31. 61. 63. 63. 51. 36. 28.
      58. 65. 55. 30. 28. 15. 55. 65. 75. 26. 57. 69. 29. 25. 11. 65.
      32. 20. 34. 12. 41. 102. 672.</_>
    <_>
      0. 0. 0. 0. 0. 0. 0. 0. 0. 1. 1. 1. 1. 3. 1. 2. 2. 2. 3. 3. 6. 12.
      8. 9. 9. 20. 17. 31. 58. 64. 76. 114. 117. 140. 131. 177. 187.
      221. 243. 257. 272. 285. 310. 369. 378. 467. 511. 537. 590. 637.
      684. 756. 846. 797. 860. 890. 954. 952. 1009. 1105. 1076. 1112.
      1260. 1264. 1305. 1358. 1348. 1443. 1577. 1643. 1731. 1897. 1999.
      1940. 2061. 2081. 2078. 2038. 1985. 1944. 1920. 1860. 1700. 1677.
      1632. 1598. 1533. 1464. 1510. 1482. 1473. 1439. 1514. 1483. 1459.
      1521. 1531. 1429. 1401. 1449. 1352. 1365. 1327. 1290. 1239. 1214.
      1117. 1064. 1060. 1067. 1030. 1018. 1000. 954. 963. 1016. 976.
      989. 984. 982. 1022. 993. 1003. 1005. 1082. 1105. 1085. 1104.
      1126. 1099. 1106. 1121. 1066. 1070. 1138. 1155. 1135. 1105. 1146.
      1173. 1074. 1120. 1135. 1076. 1105. 1164. 1122. 1211. 1158. 1192.
      1256. 1184. 1325. 1318. 1345. 1396. 1374. 1376. 1386. 1455. 1517.
      1565. 1506. 1555. 1548. 1501. 1532. 1459. 1539. 1477. 1444. 1576.
      1538. 1565. 1529. 1628. 1600. 1562. 1576. 1521. 1498. 1484. 1533.
      1501. 1512. 1553. 1490. 1514. 1469. 1471. 1444. 1461. 1458. 1471.
      1569. 1547. 1477. 1553. 1538. 1618. 1634. 1738. 1712. 1706. 1800.
      1739. 1953. 1903. 1943. 2097. 2000. 2195. 2267. 2415. 2351. 2126.
      2105. 1846. 1770. 1545. 1491. 1390. 1302. 1165. 1112. 1099. 950.
      855. 808. 696. 621. 520. 441. 443. 405. 318. 322. 204. 165. 154.
      122. 100. 82. 86. 85. 61. 50. 48. 45. 39. 38. 18. 30. 19. 18. 0.
      312. 61. 33. 55. 62. 52. 63. 36. 60. 54. 63. 50. 64. 90. 59. 30.
      36. 63. 100. 91. 62. 34. 65. 54. 71. 94. 48. 40. 15. 42. 63. 92.
      95. 66. 29. 24. 49. 85. 69. 48. 31. 6. 48. 58. 75. 34. 27. 43. 23.
      31. 5. 71. 30. 28. 26. 8. 31. 81. 609.</_>
    <_>
      0. 0. 0. 0. 0. 0. 0. 0. 0. 0. 0. 0. 0. 0. 0. 0. 0. 0. 0. 0. 0. 0.
      0. 0. 0. 0. 0. 0. 1. 0. 0. 0. 0. 1. 0. 0. 4. 1. 0. 3. 2. 3. 10.
      10. 21. 26. 31. 46. 70. 85. 112. 137. 165. 214. 234. 244. 256.
      301. 359. 348. 357. 412. 419. 469. 453. 523. 491. 583. 589. 601.
      637. 617. 704. 719. 753. 826. 822. 854. 873. 923. 894. 955. 949.
      985. 987. 1057. 1141. 1130. 1172. 1178. 1226. 1375. 1345. 1471.
      1476. 1549. 1699. 1646. 1591. 1748. 1792. 1817. 1734. 1632. 1517.
      1466. 1406. 1306. 1104. 989. 941. 896. 828. 849. 817. 835. 796.
      830. 787. 819. 826. 758. 804. 802. 814. 835. 790. 829. 830. 828.
      840. 826. 832. 895. 941. 950. 890. 943. 934. 980. 963. 994. 910.
      959. 921. 924. 959. 944. 943. 904. 935. 970. 912. 976. 952. 964.
      1010. 981. 1005. 1036. 1032. 1045. 1038. 1029. 1119. 1145. 1195.
      1206. 1236. 1283. 1402. 1443. 1441. 1575. 1607. 1669. 1684. 1745.
      1797. 1816. 1785. 1843. 1926. 2025. 1983. 1997. 1995. 2017. 1969.
      1960. 1921. 1840. 1981. 1895. 1967. 1972. 1887. 1905. 1973. 1848.
      1867. 1978. 1833. 1861. 1858. 1758. 1841. 1697. 1659. 1602. 1456.
      1522. 1424. 1519. 1567. 1448. 1484. 1344. 1311. 1303. 1359. 1346.
      1357. 1353. 1366. 1289. 1334. 1262. 1250. 1163. 1067. 1001. 821.
      698. 559. 461. 399. 295. 181. 131. 83. 66. 42. 40. 33. 38. 33. 32.
      18. 14. 18. 12. 13. 12. 12. 0. 261. 65. 39. 60. 44. 67. 86. 40.
      71. 62. 70. 66. 63. 81. 73. 35. 31. 68. 112. 118. 82. 36. 35. 53.
      65. 104. 62. 38. 6. 20. 66. 80. 87. 69. 21. 27. 43. 66. 105. 46.
      29. 10. 62. 48. 64. 25. 52. 59. 33. 21. 7. 75. 29. 23. 27. 9. 43.
      77. 528.</_>
    <_>
      0. 0. 0. 0. 0. 0. 0. 0. 0. 0. 0. 0. 0. 0. 0. 0. 0. 0. 0. 0. 0. 0.
      0. 0. 1. 1. 1. 1. 0. 1. 3. 1. 3. 9. 7. 24. 17. 44. 41. 57. 82.
      128. 170. 201. 264. 325. 423. 433. 508. 579. 568. 684. 702. 768.
      745. 822. 824. 815. 872. 837. 829. 930. 995. 1007. 1029. 1069.
      1050. 1149. 1242. 1214. 1325. 1344. 1354. 1372. 1415. 1402. 1315.
      1367. 1315. 1314. 1239. 1208. 1258. 1205. 1160. 1142. 1167. 1129.
      1143. 1155. 995. 1083. 1098. 1102. 1221. 1128. 1358. 1330. 1320.
      1423. 1431. 1479. 1417. 1334. 1412. 1307. 1248. 1273. 1188. 1186.
      1094. 1045. 1071. 998. 942. 939. 991. 953. 945. 922. 981. 974.
      889. 936. 899. 867. 871. 926. 900. 928. 888. 923. 913. 940. 965.
      1012. 879. 970. 1018. 1073. 1035. 1098. 1096. 1139. 1109. 1081.
      1141. 1098. 1178. 1160. 1116. 1157. 1166. 1136. 1183. 1294. 1281.
      1377. 1380. 1404. 1301. 1444. 1408. 1469. 1457. 1442. 1376. 1426.
      1489. 1494. 1605. 1585. 1657. 1699. 1746. 1742. 1808. 1856. 1835.
      1880. 1872. 1917. 1810. 1796. 1790. 1865. 1872. 1918. 2020. 2052.
      2101. 2045. 2149. 2180. 2084. 2127. 2054. 2011. 2052. 2074. 2117.
      2108. 2075. 1898. 2057. 1959. 2083. 2041. 1983. 2096. 1847. 1988.
      2047. 2035. 2029. 1990. 2036. 1940. 1979. 1812. 1822. 1733. 1699.
      1657. 1538. 1405. 1239. 946. 827. 661. 570. 468. 363. 298. 199.
      133. 79. 55. 62. 38. 36. 27. 26. 17. 15. 17. 12. 7. 3. 4. 2. 0. 0.
      0. 0. 0. 314. 60. 39. 80. 51. 58. 83. 33. 64. 75. 44. 56. 70. 94.
      67. 27. 35. 56. 77. 98. 90. 31. 54. 44. 74. 73. 35. 35. 8. 45. 64.
      112. 82. 62. 24. 30. 64. 77. 108. 42. 23. 11. 53. 54. 73. 32. 30.
      41. 27. 30. 13. 57. 24. 27. 27. 9. 31. 66. 581.</_>
    <_>
      0. 0. 0. 0. 0. 0. 0. 0. 0. 0. 0. 0. 0. 0. 0. 0. 0. 0. 0. 0. 0. 0.
      0. 0. 0. 0. 2. 3. 3. 2. 4. 4. 13. 18. 19. 27. 30. 52. 76. 96. 123.
      197. 253. 298. 392. 459. 524. 575. 682. 739. 824. 983. 956. 1004.
      1039. 1067. 1108. 1098. 1176. 1155. 1161. 1262. 1293. 1349. 1343.
      1327. 1345. 1490. 1430. 1370. 1435. 1416. 1432. 1394. 1439. 1426.
      1379. 1363. 1372. 1162. 1212. 1107. 1106. 1055. 961. 946. 940.
      888. 942. 889. 843. 901. 847. 947. 957. 937. 1035. 969. 1015.
      1095. 1128. 1017. 1045. 1069. 1071. 1051. 1006. 960. 1013. 942.
      981. 913. 954. 898. 910. 889. 850. 844. 813. 815. 839. 801. 850.
      902. 872. 850. 889. 873. 945. 933. 961. 935. 932. 956. 1000. 1006.
      995. 999. 1046. 1022. 1049. 1006. 1045. 1083. 1072. 1145. 1160.
      1201. 1261. 1221. 1202. 1230. 1241. 1180. 1203. 1201. 1291. 1247.
      1284. 1342. 1412. 1423. 1473. 1466. 1441. 1482. 1530. 1574. 1569.
      1512. 1528. 1618. 1573. 1510. 1647. 1634. 1617. 1638. 1612. 1595.
      1683. 1613. 1688. 1677. 1722. 1733. 1837. 1774. 1747. 1824. 1774.
      1788. 1847. 1822. 1855. 1782. 1845. 1847. 1879. 2020. 2001. 1991.
      2110. 2061. 2274. 2227. 2213. 2200. 2370. 2187. 2082. 2207. 2183.
      2137. 2110. 2089. 2053. 2057. 1967. 2087. 1962. 1910. 1819. 1749.
      1648. 1398. 1264. 1057. 882. 752. 645. 555. 477. 332. 283. 200.
      165. 109. 64. 53. 22. 32. 28. 19. 16. 21. 19. 25. 16. 13. 11. 13.
      4. 0. 0. 0. 306. 70. 42. 81. 70. 64. 78. 38. 53. 72. 57. 56. 73.
      73. 60. 28. 34. 51. 59. 56. 63. 29. 51. 60. 68. 51. 29. 35. 10.
      46. 69. 102. 94. 74. 36. 25. 62. 87. 86. 49. 34. 16. 61. 67. 73.
      25. 34. 41. 40. 35. 16. 46. 27. 31. 23. 8. 33. 70. 617.</_>
    <_>
      0. 0. 0. 0. 0. 0. 0. 0. 0. 0. 0. 0. 0. 0. 0. 0. 0. 0. 0. 0. 1. 1.
      0. 0. 6. 6. 22. 22. 28. 40. 56. 90. 104. 145. 186. 232. 279. 320.
      406. 438. 487. 551. 619. 567. 546. 548. 539. 526. 524. 510. 481.
      439. 447. 466. 464. 440. 434. 404. 331. 349. 321. 315. 300. 321.
      320. 339. 337. 382. 343. 372. 378. 406. 424. 401. 428. 414. 358.
      386. 455. 377. 457. 419. 441. 454. 425. 487. 493. 470. 489. 506.
      485. 531. 519. 490. 474. 543. 534. 476. 449. 478. 482. 464. 474.
      470. 464. 535. 472. 539. 512. 532. 508. 503. 506. 545. 561. 572.
      511. 478. 559. 590. 588. 576. 612. 600. 644. 649. 698. 693. 773.
      794. 785. 850. 787. 794. 843. 852. 862. 863. 875. 920. 987. 1002.
      978. 993. 1016. 1001. 1023. 977. 972. 1036. 1014. 979. 1038. 1075.
      1020. 1149. 1097. 1121. 1126. 1289. 1228. 1287. 1297. 1333. 1333.
      1363. 1472. 1434. 1450. 1426. 1539. 1616. 1606. 1613. 1681. 1601.
      1603. 1650. 1579. 1641. 1601. 1553. 1508. 1545. 1548. 1539. 1538.
      1555. 1719. 1666. 1759. 1803. 1761. 1801. 1923. 1902. 1947. 1926.
      1930. 1910. 1981. 2084. 2028. 1868. 2016. 1932. 1978. 1891. 1953.
      1942. 2009. 1972. 1979. 1925. 1980. 1915. 1715. 1709. 1692. 1634.
      1604. 1701. 1717. 1798. 1854. 1962. 2024. 2065. 2137. 2140. 2114.
      2214. 2139. 2077. 2027. 2016. 2105. 2107. 1963. 2098. 2226. 2354.
      2517. 2615. 2700. 2625. 2460. 2304. 2032. 1819. 1381. 1173. 930.
      888. 3567. 0. 545. 54. 45. 57. 38. 50. 68. 65. 46. 78. 70. 42. 65.
      50. 41. 21. 41. 53. 50. 54. 59. 17. 53. 52. 68. 55. 20. 16. 10.
      70. 80. 91. 90. 60. 27. 22. 71. 69. 66. 43. 23. 7. 74. 39. 65. 41.
      25. 57. 33. 26. 15. 56. 16. 27. 27. 6. 23. 57. 655.</_>
    <_>
      0. 0. 0. 0. 0. 0. 0. 1. 0. 0. 1. 2. 2. 2. 1. 4. 3. 7. 11. 12. 17.
      24. 53. 44. 61. 82. 98. 124. 155. 154. 183. 188. 234. 236. 292.
      269. 273. 235. 246. 281. 261. 253. 307. 295. 349. 445. 466. 564.
      683. 767. 803. 926. 823. 975. 1034. 1139. 1314. 1467. 1518. 1572.
      1675. 1626. 1647. 1566. 1524. 1483. 1250. 1020. 924. 777. 712.
      641. 535. 444. 424. 422. 392. 368. 354. 354. 324. 326. 371. 386.
      363. 429. 392. 429. 446. 430. 418. 446. 463. 444. 428. 456. 455.
      444. 434. 442. 429. 420. 446. 442. 452. 486. 505. 480. 489. 488.
      550. 555. 565. 599. 581. 626. 650. 565. 642. 645. 729. 741. 710.
      694. 771. 747. 731. 746. 806. 762. 805. 875. 922. 993. 1102. 1090.
      1149. 1166. 1234. 1263. 1195. 1255. 1290. 1270. 1299. 1233. 1271.
      1328. 1360. 1346. 1491. 1462. 1473. 1588. 1471. 1377. 1314. 1220.
      1284. 1268. 1279. 1329. 1367. 1331. 1355. 1365. 1357. 1322. 1268.
      1289. 1242. 1329. 1362. 1349. 1372. 1487. 1556. 1604. 1658. 1777.
      1925. 1873. 2012. 1875. 1945. 1903. 1878. 1882. 1786. 1850. 1875.
      1824. 1877. 1732. 1783. 1793. 1869. 1934. 1872. 1942. 1901. 1922.
      1929. 1841. 2099. 2089. 2130. 2128. 2265. 2287. 2291. 2386. 2294.
      2459. 2431. 2439. 2381. 2415. 2448. 2357. 2278. 2122. 2026. 1992.
      1932. 1838. 1783. 1800. 1834. 1800. 1686. 1680. 1705. 1607. 1676.
      1612. 1600. 1659. 1644. 1553. 1618. 1767. 1848. 2035. 2162. 2346.
      2341. 2465. 2255. 2113. 1819. 1524. 1181. 872. 565. 0. 438. 29.
      37. 47. 44. 48. 33. 56. 68. 46. 39. 66. 77. 99. 64. 20. 59. 100.
      160. 152. 82. 35. 33. 69. 83. 101. 59. 37. 12. 42. 45. 41. 30. 28.
      16. 21. 43. 45. 33. 28. 20. 8. 47. 46. 49. 16. 31. 52. 19. 27. 10.
      79. 42. 22. 46. 16. 33. 81. 635.</_>
    <_>
      0. 0. 0. 0. 0. 0. 0. 0. 0. 0. 0. 0. 0. 0. 0. 0. 0. 0. 0. 0. 0. 0.
      0. 0. 0. 0. 0. 0. 0. 0. 0. 0. 0. 0. 0. 0. 0. 2. 3. 7. 11. 27. 50.
      79. 115. 140. 124. 130. 215. 221. 211. 187. 215. 300. 343. 375.
      323. 352. 338. 371. 326. 358. 339. 326. 358. 392. 486. 452. 486.
      508. 561. 604. 604. 659. 660. 737. 848. 785. 762. 777. 757. 802.
      878. 964. 1086. 1220. 1232. 1140. 1256. 1310. 1371. 1369. 1302.
      1263. 1193. 1186. 1092. 1083. 1166. 1302. 1414. 1374. 1377. 1319.
      1268. 1211. 1205. 1187. 1266. 1226. 1266. 1213. 1402. 1255. 1186.
      1212. 1148. 1079. 995. 915. 856. 784. 783. 773. 767. 836. 814.
      930. 938. 864. 942. 962. 1000. 1062. 1120. 1223. 1319. 1462. 1394.
      1537. 1492. 1561. 1668. 1706. 1731. 1711. 1796. 1873. 1801. 1771.
      1684. 1699. 1861. 2248. 2472. 2651. 2510. 2352. 2516. 2430. 2258.
      1992. 1930. 2059. 1994. 2080. 2078. 2236. 2428. 2412. 2432. 2279.
      2393. 2672. 2652. 2506. 2161. 1767. 1671. 1796. 1832. 1798. 1601.
      1494. 1278. 1261. 1134. 968. 803. 655. 528. 506. 420. 372. 355.
      282. 175. 94. 30. 22. 15. 12. 17. 17. 12. 14. 14. 15. 14. 12. 16.
      18. 16. 12. 14. 12. 10. 8. 8. 16. 12. 10. 20. 14. 18. 12. 17. 12.
      15. 16. 11. 14. 16. 12. 14. 9. 12. 15. 14. 19. 16. 10. 16. 21. 17.
      26. 29. 40. 37. 31. 35. 58. 84. 129. 813. 0. 565. 57. 65. 49. 50.
      66. 60. 103. 91. 74. 43. 48. 94. 125. 76. 27. 63. 67. 80. 100. 81.
      31. 51. 68. 51. 58. 28. 30. 9. 59. 49. 68. 66. 42. 13. 15. 66. 42.
      43. 11. 14. 4. 54. 61. 46. 15. 18. 35. 17. 12. 3. 41. 26. 15. 18.
      9. 25. 53. 594.</_>
    <_>
      0. 0. 0. 0. 0. 0. 0. 0. 0. 0. 0. 0. 0. 0. 0. 0. 0. 0. 0. 0. 0. 0.
      0. 0. 0. 0. 0. 0. 0. 0. 0. 0. 0. 0. 0. 0. 0. 0. 0. 3. 6. 6. 22.
      42. 86. 100. 137. 155. 142. 129. 181. 212. 246. 230. 389. 410.
      375. 330. 306. 277. 250. 265. 299. 279. 331. 358. 302. 385. 416.
      452. 498. 529. 520. 588. 594. 732. 785. 920. 928. 898. 960. 962.
      1032. 979. 1034. 1174. 1413. 1416. 1518. 1478. 1352. 1359. 1222.
      1183. 1198. 1073. 1067. 1073. 1120. 1116. 1290. 1327. 1265. 1253.
      1275. 1142. 1188. 1263. 1180. 1182. 1246. 1241. 1280. 1249. 1212.
      1138. 1042. 1055. 1021. 907. 818. 757. 752. 766. 669. 841. 914.
      988. 1053. 1053. 1108. 1124. 1119. 1124. 1145. 1141. 1206. 1262.
      1304. 1387. 1461. 1686. 1749. 1848. 1945. 2154. 2254. 2174. 2041.
      2003. 1788. 1885. 1952. 2179. 2222. 2393. 2547. 2619. 2659. 2420.
      2268. 2061. 2162. 2280. 1959. 2252. 2432. 2622. 2611. 2855. 2794.
      2915. 2884. 2692. 2562. 2319. 1747. 1219. 987. 1107. 1142. 1003.
      1100. 1065. 1002. 1037. 1025. 985. 1033. 823. 623. 374. 261. 253.
      210. 178. 89. 47. 23. 21. 23. 13. 11. 16. 7. 14. 18. 14. 18. 18.
      15. 13. 18. 19. 13. 13. 14. 23. 16. 14. 17. 10. 19. 18. 22. 15.
      22. 14. 12. 10. 11. 15. 15. 16. 7. 16. 20. 10. 12. 13. 12. 23. 15.
      13. 26. 30. 17. 28. 25. 30. 40. 43. 58. 96. 532. 0. 618. 40. 56.
      50. 52. 72. 35. 108. 100. 78. 38. 53. 107. 121. 82. 19. 82. 64.
      155. 121. 87. 19. 60. 63. 51. 66. 41. 25. 4. 67. 64. 63. 43. 31.
      8. 16. 63. 40. 47. 15. 13. 5. 70. 44. 38. 11. 10. 49. 20. 21. 5.
      51. 15. 21. 20. 5. 10. 46. 466.</_>
    <_>
      914. 518. 614. 720. 935. 1151. 1256. 1416. 1365. 1277. 1346. 1372.
      1301. 1299. 1312. 1222. 1140. 1091. 996. 1112. 1131. 1070. 1146.
      1138. 1023. 1030. 1014. 985. 928. 838. 699. 731. 698. 649. 595.
      558. 530. 467. 381. 367. 321. 318. 305. 266. 346. 314. 317. 343.
      346. 306. 325. 321. 369. 357. 371. 379. 426. 458. 484. 530. 575.
      564. 557. 622. 685. 691. 749. 753. 787. 747. 773. 777. 830. 742.
      789. 739. 702. 767. 795. 757. 818. 844. 884. 892. 939. 967. 932.
      1067. 957. 960. 923. 963. 904. 893. 945. 1050. 1252. 1202. 1064.
      1032. 993. 1034. 1064. 1056. 1082. 1054. 1033. 1068. 1146. 1204.
      1093. 924. 1206. 1222. 1085. 1031. 908. 848. 807. 850. 809. 726.
      665. 597. 569. 614. 604. 529. 588. 486. 437. 453. 442. 358. 359.
      311. 303. 312. 344. 323. 267. 264. 228. 238. 264. 222. 226. 167.
      183. 188. 198. 162. 172. 179. 191. 193. 196. 183. 195. 193. 173.
      214. 183. 213. 187. 194. 188. 166. 174. 167. 218. 187. 180. 180.
      150. 147. 184. 140. 151. 196. 176. 206. 191. 231. 244. 263. 258.
      132. 97. 71. 68. 48. 39. 15. 11. 1. 1. 0. 0. 0. 0. 0. 0. 0. 0. 0.
      0. 0. 0. 0. 0. 0. 0. 0. 0. 0. 0. 0. 0. 0. 0. 0. 0. 0. 0. 0. 0. 0.
      0. 0. 0. 0. 0. 0. 0. 0. 0. 0. 0. 0. 0. 0. 0. 0. 0. 0. 0. 0. 0. 0.
      0. 0. 0. 0. 0. 0. 198. 28. 21. 62. 45. 77. 124. 35. 67. 67. 86.
      35. 95. 163. 64. 32. 27. 70. 226. 236. 115. 28. 18. 51. 102. 221.
      100. 33. 4. 14. 38. 100. 129. 93. 31. 21. 33. 58. 84. 31. 27. 7.
      49. 46. 33. 10. 11. 41. 21. 11. 1. 81. 18. 11. 32. 1. 12. 42. 328.</_>
    <_>
      556. 301. 369. 412. 515. 547. 579. 713. 775. 833. 906. 845. 875.
      918. 898. 812. 895. 840. 812. 816. 802. 840. 823. 812. 795. 741.
      673. 646. 589. 570. 539. 513. 539. 525. 515. 508. 498. 523. 480.
      478. 401. 372. 346. 402. 393. 420. 449. 368. 403. 378. 349. 378.
      395. 398. 406. 416. 391. 411. 444. 414. 408. 395. 376. 353. 420.
      396. 384. 387. 441. 476. 505. 580. 591. 596. 651. 571. 543. 557.
      571. 634. 658. 684. 709. 757. 897. 955. 968. 960. 978. 982. 1064.
      1092. 1071. 1026. 1104. 1055. 1206. 1045. 946. 808. 809. 822. 846.
      748. 773. 707. 759. 765. 789. 756. 655. 605. 776. 755. 760. 815.
      754. 738. 799. 840. 801. 773. 662. 644. 641. 625. 740. 650. 685.
      634. 691. 730. 802. 764. 640. 668. 615. 586. 504. 479. 397. 364.
      321. 347. 353. 327. 326. 330. 353. 389. 363. 383. 351. 330. 337.
      292. 355. 327. 304. 275. 267. 282. 270. 286. 281. 273. 333. 371.
      332. 342. 320. 264. 253. 283. 245. 252. 252. 265. 272. 266. 350.
      375. 359. 403. 448. 548. 614. 624. 594. 664. 663. 565. 430. 349.
      244. 215. 189. 175. 166. 130. 119. 150. 148. 116. 101. 100. 113.
      112. 111. 86. 84. 83. 77. 77. 51. 38. 33. 18. 13. 5. 2. 3. 1. 0.
      0. 0. 0. 0. 0. 0. 0. 0. 0. 0. 0. 0. 0. 0. 0. 0. 0. 0. 0. 0. 0. 0.
      0. 0. 0. 0. 0. 0. 0. 0. 0. 0. 161. 14. 15. 29. 32. 50. 98. 43. 74.
      51. 65. 38. 78. 115. 42. 19. 44. 101. 364. 311. 85. 18. 26. 64.
      170. 447. 89. 26. 3. 15. 20. 46. 117. 68. 15. 13. 34. 42. 60. 18.
      13. 1. 52. 32. 41. 4. 3. 71. 28. 14. 2. 121. 24. 16. 31. 1. 8. 35.
      227.</_>
    <_>
      5368. 1936. 2265. 2464. 2767. 2896. 3018. 3004. 2931. 2829. 2824.
      2708. 2683. 2683. 2530. 2498. 2426. 2257. 1992. 2029. 1959. 1766.
      1654. 1643. 1612. 1489. 1463. 1392. 1279. 1295. 1240. 1184. 1240.
      1190. 1141. 1164. 1226. 1258. 1242. 1126. 1108. 1091. 1108. 1065.
      1082. 1143. 1093. 1120. 1175. 1024. 979. 975. 849. 846. 837. 775.
      808. 835. 800. 880. 869. 906. 957. 982. 1105. 1157. 1246. 1317.
      1359. 1390. 1439. 1506. 1587. 1560. 1893. 1843. 1996. 2117. 2127.
      2267. 2479. 2459. 2625. 2647. 2690. 2765. 2827. 2709. 2761. 2917.
      2985. 2970. 2855. 2820. 2959. 2900. 3323. 3091. 2991. 2816. 2925.
      2924. 2864. 2988. 2850. 2861. 3025. 2999. 3141. 3094. 2740. 2547.
      2854. 2775. 2790. 2510. 2362. 2387. 2466. 2573. 2479. 2458. 2212.
      1911. 1840. 1860. 1681. 1586. 1585. 1366. 1335. 1434. 1502. 1552.
      1447. 1475. 1518. 1623. 1632. 1445. 1298. 1289. 1392. 1404. 1302.
      1210. 1048. 873. 923. 948. 874. 874. 799. 705. 667. 694. 699. 631.
      592. 554. 565. 586. 660. 569. 547. 489. 511. 555. 542. 608. 542.
      514. 533. 624. 622. 598. 627. 630. 668. 683. 711. 633. 613. 651.
      612. 618. 578. 530. 510. 558. 469. 519. 478. 385. 335. 297. 270.
      210. 155. 93. 62. 56. 41. 18. 14. 4. 4. 2. 0. 0. 0. 1. 1. 0. 0. 0.
      0. 0. 0. 0. 0. 0. 0. 0. 0. 0. 0. 0. 0. 0. 0. 0. 0. 0. 0. 0. 0. 0.
      0. 0. 0. 0. 0. 0. 0. 0. 0. 0. 0. 0. 0. 0. 0. 0. 0. 0. 265. 36. 20.
      27. 38. 39. 39. 57. 85. 56. 44. 54. 120. 144. 76. 22. 45. 95. 278.
      263. 112. 24. 44. 62. 126. 248. 100. 36. 11. 20. 23. 29. 27. 37.
      19. 22. 31. 47. 47. 10. 21. 5. 50. 30. 37. 6. 18. 60. 21. 8. 3.
      94. 27. 31. 30. 4. 18. 59. 444.</_>
    <_>
      195. 110. 121. 188. 216. 313. 330. 392. 384. 427. 540. 625. 688.
      709. 790. 797. 818. 857. 928. 1022. 1122. 1138. 1236. 1244. 1318.
      1318. 1313. 1349. 1330. 1402. 1381. 1359. 1307. 1197. 1114. 1113.
      1042. 1062. 993. 983. 984. 932. 881. 800. 746. 735. 734. 610. 571.
      632. 647. 599. 602. 595. 627. 599. 582. 573. 582. 580. 554. 546.
      588. 552. 593. 622. 602. 601. 646. 584. 591. 654. 595. 616. 644.
      679. 668. 683. 767. 711. 703. 694. 717. 694. 735. 733. 816. 816.
      769. 738. 733. 828. 785. 776. 869. 798. 820. 891. 929. 945. 982.
      993. 990. 972. 1153. 1115. 1156. 1263. 1278. 1284. 1342. 1296.
      1620. 1533. 1673. 1715. 1648. 1782. 1809. 1993. 2143. 2276. 2241.
      2263. 2442. 2720. 2879. 2709. 3067. 2912. 2949. 2977. 3233. 3303.
      3508. 3518. 3382. 3297. 3109. 3006. 3104. 3154. 3454. 3147. 3134.
      3006. 3308. 3536. 3875. 3939. 3749. 3734. 3617. 3941. 4302. 4751.
      4925. 4566. 4051. 3802. 3733. 3657. 3432. 3187. 2650. 2238. 1868.
      1983. 1933. 1953. 1834. 1615. 1480. 1336. 1354. 1417. 1350. 1243.
      1074. 1038. 1063. 1068. 1099. 1155. 1171. 976. 917. 859. 872. 808.
      673. 505. 392. 330. 260. 238. 160. 130. 97. 80. 66. 88. 88. 92.
      106. 96. 108. 110. 109. 123. 79. 65. 59. 45. 38. 31. 50. 36. 23.
      19. 13. 14. 13. 6. 16. 14. 20. 9. 8. 14. 11. 7. 6. 13. 7. 10. 13.
      17. 9. 10. 14. 14. 9. 20. 11. 12. 13. 21. 14. 26. 17. 20. 29. 27.
      62. 0. 322. 41. 45. 65. 63. 49. 92. 51. 86. 80. 79. 46. 88. 99.
      85. 37. 61. 76. 162. 127. 89. 24. 45. 80. 101. 106. 50. 16. 2. 34.
      53. 84. 95. 79. 29. 24. 52. 66. 90. 29. 17. 6. 50. 56. 49. 16. 19.
      53. 28. 12. 3. 81. 15. 24. 24. 1. 20. 46. 422.</_>
    <_>
      157. 82. 123. 205. 255. 337. 411. 516. 598. 686. 652. 743. 792.
      936. 1023. 1121. 1222. 1295. 1420. 1503. 1504. 1462. 1416. 1478.
      1361. 1344. 1266. 1305. 1273. 1163. 1201. 1117. 1081. 969. 912.
      925. 975. 948. 896. 984. 1033. 1071. 1067. 1065. 1041. 1027. 960.
      978. 1055. 939. 983. 984. 1017. 973. 938. 907. 907. 855. 862. 885.
      856. 849. 953. 899. 954. 950. 931. 872. 821. 830. 792. 745. 748.
      705. 772. 792. 772. 800. 780. 757. 813. 832. 944. 929. 1033. 1093.
      1252. 1350. 1374. 1496. 1612. 1729. 1878. 2030. 2276. 2181. 2638.
      2725. 2772. 3099. 3275. 3437. 3734. 3933. 3905. 4049. 4106. 4266.
      4194. 4308. 4345. 4164. 4720. 4421. 4461. 4370. 4171. 3952. 3606.
      3145. 3233. 3454. 3701. 3914. 3917. 3907. 3985. 3777. 4662. 4587.
      5069. 5126. 5425. 5348. 5171. 4967. 4688. 4570. 4171. 3870. 3364.
      3264. 2810. 2462. 2071. 1739. 1446. 1350. 1285. 1101. 991. 998.
      805. 774. 731. 688. 561. 530. 507. 500. 504. 464. 437. 401. 372.
      379. 351. 325. 298. 287. 280. 274. 248. 202. 151. 95. 62. 40. 21.
      19. 5. 2. 0. 0. 0. 0. 0. 0. 0. 0. 0. 0. 0. 0. 0. 0. 0. 0. 0. 0. 0.
      0. 0. 0. 0. 0. 0. 0. 0. 0. 0. 0. 0. 0. 0. 0. 0. 0. 0. 0. 0. 0. 0.
      0. 0. 0. 0. 0. 0. 0. 0. 0. 0. 0. 0. 0. 0. 0. 0. 0. 0. 0. 0. 0. 0.
      0. 0. 0. 0. 0. 0. 0. 0. 0. 0. 0. 317. 41. 39. 65. 61. 65. 95. 54.
      75. 64. 66. 37. 92. 112. 69. 27. 55. 74. 173. 157. 84. 31. 53. 46.
      93. 127. 44. 24. 4. 31. 58. 86. 78. 56. 25. 26. 54. 75. 76. 30.
      19. 3. 56. 54. 50. 10. 19. 51. 23. 23. 4. 68. 20. 28. 26. 4. 12.
      57. 478.</_>
    <_>
      2558. 1215. 1468. 1700. 1882. 2205. 2421. 2652. 2838. 2772. 2877.
      2866. 2790. 2670. 2712. 2444. 2535. 2385. 2259. 2171. 2222. 2138.
      1888. 1891. 1844. 1627. 1488. 1494. 1359. 1221. 1105. 1027. 1060.
      962. 916. 882. 833. 796. 790. 792. 733. 698. 710. 739. 716. 771.
      812. 851. 873. 897. 923. 959. 1079. 1155. 1159. 1209. 1157. 1235.
      1380. 1419. 1450. 1526. 1537. 1547. 1709. 1775. 1836. 1868. 1889.
      2044. 2104. 2328. 2482. 2500. 2857. 2850. 2858. 2994. 3060. 2932.
      3431. 3257. 3253. 3393. 3384. 3510. 3469. 3253. 3228. 3194. 3130.
      3113. 3106. 3101. 3244. 3225. 3887. 3781. 3647. 3751. 3727. 3829.
      3791. 3900. 3741. 3483. 3413. 3686. 3720. 3642. 3442. 2895. 2986.
      2857. 2854. 2687. 2418. 2186. 2042. 2024. 2036. 1918. 1694. 1586.
      1443. 1310. 1321. 1120. 1221. 1109. 1053. 1042. 1036. 1013. 963.
      951. 902. 997. 989. 966. 933. 903. 842. 874. 946. 910. 905. 787.
      802. 811. 847. 768. 683. 638. 572. 533. 465. 377. 321. 258. 234.
      204. 199. 170. 144. 105. 115. 100. 86. 68. 37. 31. 12. 21. 10. 16.
      6. 4. 5. 4. 2. 6. 3. 9. 5. 8. 9. 3. 5. 1. 3. 5. 3. 6. 3. 6. 8. 4.
      2. 7. 1. 2. 5. 4. 2. 5. 3. 6. 2. 4. 3. 3. 3. 5. 2. 6. 2. 5. 1. 4.
      6. 4. 4. 4. 5. 6. 5. 5. 3. 8. 7. 5. 2. 6. 2. 5. 3. 3. 5. 11. 4. 7.
      11. 14. 9. 13. 4. 7. 25. 23. 15. 21. 12. 15. 24. 0. 248. 43. 43.
      57. 43. 59. 85. 31. 58. 75. 81. 57. 60. 115. 91. 44. 44. 64. 97.
      112. 93. 26. 45. 58. 78. 109. 46. 37. 6. 33. 53. 82. 75. 94. 28.
      25. 56. 74. 88. 27. 19. 7. 52. 56. 84. 27. 26. 68. 37. 23. 6. 84.
      29. 33. 37. 6. 38. 78. 494.</_>
    <_>
      0. 0. 0. 0. 0. 0. 0. 0. 0. 0. 0. 0. 0. 0. 0. 0. 0. 1. 19. 58. 124.
      253. 431. 628. 722. 772. 791. 898. 1013. 941. 803. 556. 425. 398.
      443. 473. 516. 560. 556. 701. 962. 1092. 1355. 1555. 1665. 1542.
      1553. 1518. 1585. 1573. 1676. 1532. 1436. 1247. 1192. 1292. 1300.
      1353. 1297. 1335. 1270. 1389. 1382. 1479. 1401. 1355. 1293. 1370.
      1325. 1329. 1293. 1149. 1224. 1108. 1091. 1045. 1016. 965. 1031.
      929. 991. 901. 978. 927. 925. 872. 838. 837. 866. 791. 779. 822.
      843. 768. 806. 813. 929. 933. 835. 886. 882. 908. 883. 965. 1024.
      1069. 1050. 1121. 1139. 1286. 1462. 1390. 1608. 1361. 1458. 1366.
      1429. 1386. 1480. 1493. 1440. 1364. 1227. 1185. 1348. 1342. 1409.
      1312. 1739. 1660. 1674. 1708. 1821. 1933. 1793. 1727. 1684. 1663.
      1642. 1607. 1475. 1613. 1563. 1429. 1492. 1361. 1283. 1441. 1704.
      1724. 1757. 1833. 1808. 1955. 2001. 2093. 1995. 2003. 1949. 2001.
      1904. 1925. 1910. 2025. 2014. 1928. 1873. 1811. 1691. 1661. 1897.
      2310. 2325. 2254. 2177. 2216. 2180. 2206. 2222. 2208. 2245. 2253.
      2123. 2188. 2241. 2182. 2025. 2171. 2107. 1979. 1841. 1606. 1688.
      1920. 1955. 2028. 1888. 1596. 1310. 1204. 848. 754. 646. 582. 552.
      520. 507. 481. 442. 363. 253. 250. 231. 228. 200. 218. 215. 190.
      176. 146. 121. 133. 71. 68. 71. 57. 38. 46. 61. 32. 44. 38. 47.
      39. 30. 33. 39. 42. 42. 31. 36. 54. 39. 41. 40. 35. 42. 58. 48.
      43. 40. 51. 39. 61. 132. 0. 405. 44. 72. 89. 49. 71. 100. 75. 69.
      90. 67. 50. 96. 104. 56. 26. 49. 57. 112. 86. 55. 26. 41. 35. 47.
      60. 32. 23. 4. 43. 70. 181. 192. 72. 19. 15. 37. 56. 142. 69. 21.
      4. 33. 18. 41. 20. 32. 37. 9. 16. 4. 30. 4. 13. 20. 8. 22. 40.
      486.</_>
    <_>
      0. 0. 0. 0. 0. 0. 0. 0. 0. 0. 0. 0. 0. 0. 0. 0. 0. 0. 0. 2. 10.
      42. 111. 121. 182. 296. 447. 488. 707. 899. 958. 988. 841. 599.
      518. 559. 540. 496. 474. 450. 489. 559. 668. 763. 972. 1245. 1240.
      1300. 1441. 1647. 1572. 1439. 1511. 1610. 1545. 1455. 1441. 1317.
      1252. 1119. 1010. 955. 967. 1041. 1072. 1122. 926. 1104. 1064.
      1074. 1073. 906. 1043. 996. 954. 983. 1036. 1034. 985. 1052. 1027.
      1004. 975. 1020. 927. 889. 850. 822. 935. 937. 939. 935. 972. 950.
      961. 931. 1004. 1009. 1073. 1064. 1141. 1108. 957. 993. 1058.
      1054. 1007. 1016. 1101. 1110. 1027. 1004. 1239. 1341. 1404. 1414.
      1310. 1362. 1295. 1340. 1369. 1347. 1471. 1489. 1427. 1400. 1360.
      1295. 1579. 1574. 1617. 1711. 1822. 1747. 1630. 1505. 1385. 1351.
      1451. 1579. 1640. 1614. 1692. 1512. 1496. 1475. 1603. 1569. 1644.
      1654. 1653. 1773. 1739. 1789. 1837. 1833. 1752. 1705. 1687. 1614.
      1510. 1445. 1481. 1640. 1751. 1848. 1877. 1989. 1967. 2095. 2086.
      2135. 2118. 2051. 2217. 2257. 2256. 2305. 2329. 2149. 2204. 2346.
      2202. 2100. 1742. 1371. 1378. 1555. 1712. 1707. 1735. 1749. 1868.
      1759. 1599. 1603. 1312. 1064. 904. 784. 782. 691. 578. 415. 427.
      390. 324. 235. 165. 159. 127. 133. 125. 105. 114. 84. 89. 84. 58.
      63. 41. 47. 50. 45. 26. 37. 33. 30. 29. 31. 25. 21. 29. 30. 34.
      27. 23. 26. 9. 29. 21. 30. 28. 28. 25. 23. 28. 27. 28. 33. 34. 28.
      28. 42. 89. 0. 531. 30. 56. 75. 51. 60. 58. 111. 88. 82. 28. 49.
      121. 109. 77. 28. 53. 74. 161. 134. 65. 15. 53. 46. 41. 81. 30.
      13. 8. 45. 62. 190. 169. 56. 16. 16. 26. 45. 117. 55. 13. 6. 28.
      17. 27. 12. 10. 22. 9. 9. 14. 33. 13. 23. 10. 3. 9. 32. 429.</_>
    <_>
      0. 0. 0. 0. 0. 0. 0. 0. 0. 0. 0. 0. 0. 0. 0. 0. 0. 0. 0. 0. 0. 0.
      0. 0. 0. 0. 0. 0. 0. 0. 0. 0. 0. 0. 1. 6. 9. 6. 13. 12. 18. 23.
      36. 45. 78. 101. 120. 116. 110. 87. 87. 80. 69. 78. 90. 96. 89.
      129. 141. 155. 141. 179. 192. 238. 182. 217. 240. 233. 212. 248.
      259. 323. 383. 405. 479. 510. 524. 693. 697. 773. 648. 769. 843.
      788. 725. 836. 901. 998. 1061. 1221. 1342. 1380. 1484. 1489. 1501.
      1635. 1816. 1825. 1793. 1720. 1627. 1656. 1706. 1562. 1617. 1665.
      1450. 1783. 1925. 1853. 1938. 1881. 2182. 2255. 2489. 2770. 3127.
      3330. 3051. 2784. 2506. 2397. 2201. 2756. 2947. 2996. 2781. 2587.
      2420. 1995. 1781. 1685. 1767. 1701. 1772. 1867. 1845. 1971. 2121.
      2241. 2228. 2334. 2423. 2470. 2384. 2527. 2535. 2602. 2599. 2445.
      2342. 2157. 2090. 1868. 1631. 1602. 1594. 1554. 1347. 1256. 1190.
      1178. 1130. 1110. 1066. 1043. 1072. 1071. 1109. 1121. 1062. 1014.
      1009. 1097. 1127. 1155. 1033. 985. 949. 941. 1052. 1099. 1261.
      1542. 1571. 1825. 2098. 2087. 2015. 2027. 2028. 1955. 1719. 1522.
      1253. 1123. 915. 836. 703. 604. 526. 464. 473. 440. 461. 439. 447.
      440. 408. 434. 407. 415. 385. 371. 369. 386. 381. 412. 402. 387.
      415. 401. 377. 386. 381. 348. 318. 388. 336. 346. 312. 293. 342.
      286. 280. 298. 294. 292. 262. 256. 272. 280. 308. 279. 292. 283.
      289. 280. 286. 290. 285. 308. 373. 391. 863. 0. 424. 80. 62. 92.
      47. 72. 88. 34. 33. 48. 56. 38. 29. 20. 28. 24. 25. 28. 12. 8. 19.
      16. 65. 30. 21. 5. 7. 8. 4. 77. 150. 192. 141. 87. 19. 18. 76.
      135. 168. 88. 39. 8. 55. 49. 92. 60. 37. 28. 27. 44. 10. 20. 16.
      19. 13. 6. 17. 80. 650.</_>
    <_>
      0. 0. 0. 0. 0. 0. 0. 0. 0. 0. 0. 0. 0. 0. 0. 0. 0. 0. 0. 0. 0. 0.
      0. 0. 0. 0. 0. 0. 0. 0. 0. 0. 0. 0. 0. 0. 1. 6. 6. 18. 11. 20. 33.
      48. 49. 79. 86. 88. 78. 78. 87. 93. 92. 107. 98. 111. 108. 128.
      135. 170. 150. 195. 203. 211. 280. 282. 292. 291. 273. 303. 331.
      373. 418. 412. 404. 471. 525. 540. 616. 652. 656. 756. 785. 886.
      966. 904. 959. 882. 1008. 1026. 1097. 1227. 1307. 1381. 1468.
      1558. 1490. 1476. 1476. 1614. 1538. 1597. 1634. 1629. 1555. 1664.
      1630. 1713. 1780. 1753. 1883. 1820. 2063. 1980. 2102. 2304. 2514.
      2593. 2798. 2826. 2781. 2645. 2250. 2607. 2489. 2753. 2829. 2904.
      3050. 2548. 2439. 2111. 1857. 1717. 1610. 1498. 1577. 1790. 1449.
      1692. 1809. 1788. 1857. 2286. 1912. 1992. 2107. 2061. 2098. 1933.
      1831. 1975. 1844. 1685. 1478. 1744. 1615. 1499. 1412. 1292. 1197.
      1151. 1139. 1215. 1179. 1172. 1085. 1056. 991. 917. 914. 886. 908.
      813. 873. 801. 782. 787. 835. 721. 723. 719. 809. 787. 792. 922.
      1041. 1082. 1015. 972. 1110. 1279. 1505. 1715. 1895. 1984. 1345.
      1660. 1610. 1506. 1443. 1358. 1225. 1045. 941. 690. 489. 422. 403.
      405. 374. 385. 409. 355. 352. 313. 357. 356. 331. 352. 351. 325.
      324. 365. 375. 372. 388. 360. 347. 325. 357. 341. 358. 359. 365.
      356. 363. 343. 316. 377. 351. 342. 355. 353. 385. 370. 355. 339.
      352. 364. 333. 387. 428. 500. 857. 0. 369. 84. 58. 95. 42. 68.
      107. 21. 27. 61. 76. 34. 20. 17. 29. 15. 16. 23. 15. 7. 14. 15.
      46. 26. 31. 10. 8. 12. 2. 74. 124. 226. 175. 92. 29. 25. 81. 112.
      212. 110. 45. 9. 45. 42. 115. 66. 29. 44. 23. 35. 18. 18. 14. 30.
      14. 2. 14. 81. 592.</_>
    <_>
      0. 0. 0. 0. 0. 0. 0. 0. 0. 1. 2. 1. 0. 7. 6. 9. 13. 16. 21. 31.
      43. 65. 88. 102. 123. 171. 200. 260. 275. 278. 339. 358. 399. 375.
      419. 424. 427. 450. 464. 519. 480. 506. 487. 547. 485. 521. 542.
      582. 555. 556. 552. 545. 564. 541. 539. 610. 523. 500. 431. 394.
      319. 301. 265. 245. 201. 209. 195. 220. 191. 181. 205. 225. 210.
      205. 220. 204. 200. 218. 226. 197. 222. 218. 234. 174. 201. 201.
      229. 236. 223. 248. 277. 292. 316. 329. 326. 363. 413. 395. 432.
      467. 417. 442. 446. 486. 505. 553. 558. 530. 550. 531. 616. 538.
      602. 657. 649. 666. 690. 663. 716. 740. 811. 848. 938. 994. 1037.
      1105. 1131. 1136. 1249. 1193. 1164. 1252. 1210. 1204. 1150. 1145.
      1103. 1162. 1230. 1294. 1317. 1263. 1291. 1176. 1168. 1159. 1143.
      1154. 1157. 1190. 1139. 1119. 1041. 1089. 1192. 1213. 1272. 1249.
      1315. 1349. 1295. 1343. 1251. 1268. 1268. 1200. 1221. 1151. 1017.
      1042. 1094. 1131. 1304. 1403. 1387. 1465. 1466. 1603. 1890. 1776.
      1918. 2115. 2277. 2231. 2099. 1928. 1858. 1951. 2121. 2199. 2445.
      2521. 2821. 3022. 3378. 3601. 3958. 4251. 4098. 3778. 3213. 2617.
      2389. 2325. 1875. 1569. 1309. 1036. 759. 651. 527. 581. 558. 566.
      517. 461. 405. 398. 431. 436. 401. 402. 398. 410. 429. 529. 575.
      773. 724. 601. 549. 618. 718. 815. 968. 1318. 2017. 2295. 2292.
      1972. 1352. 764. 576. 478. 387. 293. 238. 251. 218. 184. 159. 179.
      172. 70. 60. 0. 405. 44. 59. 64. 64. 81. 98. 72. 92. 87. 54. 46.
      88. 111. 81. 39. 54. 62. 95. 120. 90. 35. 48. 50. 51. 64. 35. 33.
      12. 46. 56. 95. 105. 75. 22. 27. 57. 47. 75. 39. 11. 11. 51. 34.
      39. 18. 20. 36. 24. 20. 1. 49. 19. 24. 19. 5. 27. 42. 516.</_>
    <_>
      0. 0. 0. 0. 0. 0. 1. 2. 4. 2. 4. 9. 5. 11. 19. 21. 18. 26. 38. 56.
      60. 81. 101. 95. 139. 129. 174. 173. 207. 191. 204. 190. 217. 187.
      189. 192. 170. 202. 222. 201. 186. 196. 149. 159. 170. 231. 242.
      267. 295. 317. 306. 322. 354. 383. 403. 393. 333. 320. 286. 233.
      214. 171. 181. 150. 163. 131. 145. 140. 161. 158. 151. 135. 158.
      139. 131. 136. 153. 136. 127. 139. 129. 159. 192. 185. 185. 180.
      221. 212. 243. 261. 276. 285. 279. 322. 307. 316. 374. 378. 434.
      407. 453. 425. 425. 389. 436. 481. 508. 535. 570. 569. 570. 584.
      722. 694. 790. 737. 772. 692. 730. 748. 819. 813. 973. 1013. 1027.
      1095. 1165. 1130. 1170. 1213. 1145. 1233. 1193. 1195. 1157. 1104.
      1004. 1018. 1109. 1129. 1115. 1190. 1272. 1252. 1277. 1156. 1247.
      1174. 1218. 1226. 1195. 1133. 1031. 1092. 1197. 1160. 1254. 1183.
      1280. 1216. 1233. 1318. 1321. 1324. 1387. 1413. 1384. 1294. 1224.
      1207. 1213. 1240. 1320. 1521. 1596. 1611. 1690. 1860. 1904. 1960.
      2034. 2158. 2169. 2194. 2180. 1952. 1853. 2014. 2202. 2421. 2430.
      2387. 2547. 2835. 3027. 3278. 3462. 3646. 3804. 3489. 2930. 2535.
      2515. 2475. 2184. 1789. 1603. 1379. 1154. 951. 706. 622. 562. 531.
      427. 351. 316. 327. 382. 386. 398. 391. 467. 566. 678. 738. 976.
      1149. 1089. 816. 779. 1118. 1656. 2305. 2693. 2646. 2795. 2931.
      2650. 2262. 1831. 1086. 693. 558. 442. 340. 341. 380. 349. 353.
      393. 346. 215. 149. 212. 0. 391. 31. 51. 61. 54. 68. 55. 82. 94.
      94. 73. 57. 104. 132. 103. 30. 47. 68. 162. 132. 118. 26. 42. 58.
      58. 124. 44. 33. 5. 33. 56. 82. 49. 50. 16. 23. 46. 40. 50. 27.
      16. 3. 62. 34. 41. 6. 21. 34. 20. 15. 4. 64. 22. 17. 24. 5. 25.
      40. 522.</_>
    <_>
      0. 0. 0. 0. 0. 0. 0. 0. 0. 0. 0. 0. 0. 2. 0. 0. 2. 5. 5. 5. 13.
      12. 18. 36. 35. 52. 53. 80. 102. 111. 132. 180. 178. 201. 241.
      227. 237. 274. 296. 282. 308. 304. 281. 268. 279. 281. 262. 262.
      327. 297. 339. 347. 357. 363. 385. 416. 454. 417. 377. 337. 337.
      324. 308. 287. 270. 288. 214. 209. 209. 179. 213. 159. 176. 167.
      206. 205. 170. 166. 183. 176. 184. 180. 181. 207. 203. 236. 194.
      203. 200. 201. 206. 227. 241. 236. 271. 271. 323. 307. 305. 328.
      343. 350. 372. 371. 382. 388. 381. 469. 444. 522. 536. 473. 590.
      562. 585. 604. 614. 666. 671. 741. 748. 747. 794. 752. 815. 939.
      1040. 1116. 1201. 1126. 1197. 1178. 1214. 1092. 1135. 1122. 1155.
      1059. 1056. 1080. 1035. 1058. 1164. 1092. 1178. 1261. 1178. 1173.
      1237. 1126. 1129. 1199. 1222. 1127. 1120. 1112. 1073. 1107. 1122.
      1021. 992. 1039. 1147. 1123. 1146. 1244. 1181. 1250. 1249. 1275.
      1353. 1281. 1251. 1229. 1214. 1182. 1121. 983. 1013. 1038. 1151.
      1266. 1343. 1331. 1517. 1573. 1612. 1650. 1813. 1880. 1966. 1991.
      1854. 1675. 1542. 1612. 1710. 1968. 2190. 2401. 2454. 2737. 3098.
      3557. 3890. 4183. 3933. 3730. 3357. 2766. 2054. 1839. 1815. 1809.
      1534. 1197. 1045. 917. 774. 674. 656. 641. 571. 504. 426. 441.
      430. 496. 488. 454. 478. 421. 445. 451. 603. 646. 675. 690. 728.
      681. 655. 818. 1098. 1413. 1593. 1730. 1431. 951. 614. 425. 317.
      202. 164. 133. 153. 0. 379. 42. 70. 85. 57. 86. 93. 60. 95. 78.
      54. 43. 73. 145. 89. 34. 48. 49. 110. 157. 103. 28. 39. 41. 41.
      76. 37. 18. 7. 41. 58. 125. 99. 66. 34. 26. 46. 75. 98. 47. 21.
      10. 42. 34. 47. 18. 16. 28. 15. 15. 2. 38. 8. 18. 13. 11. 18. 55.
      483.</_>
    <_>
      39. 23. 24. 44. 57. 71. 111. 105. 183. 222. 302. 428. 563. 689.
      824. 996. 1094. 1043. 1158. 1310. 1358. 1499. 1615. 1663. 1524.
      1371. 1214. 1072. 1036. 1001. 922. 840. 841. 739. 653. 569. 590.
      568. 587. 546. 560. 576. 556. 531. 522. 551. 517. 522. 574. 598.
      600. 626. 636. 685. 672. 655. 733. 782. 764. 847. 836. 879. 871.
      952. 954. 969. 914. 935. 943. 954. 934. 812. 816. 738. 847. 815.
      892. 880. 917. 969. 1024. 989. 1038. 1103. 1167. 1177. 1197. 1241.
      1317. 1381. 1537. 1515. 1461. 1517. 1570. 1378. 1540. 1495. 1571.
      1498. 1575. 1527. 1574. 1584. 1549. 1602. 1679. 1610. 1571. 1512.
      1387. 1304. 1393. 1412. 1359. 1399. 1314. 1304. 1172. 1150. 1266.
      1309. 1323. 1493. 1432. 1411. 1484. 1434. 1552. 1463. 1537. 1568.
      1514. 1543. 1579. 1586. 1625. 1578. 1566. 1712. 1786. 1807. 1950.
      1972. 2142. 2240. 2383. 2466. 2725. 2802. 3023. 2954. 2618. 2737.
      3109. 3802. 4531. 4379. 4842. 4442. 4423. 3867. 3452. 2995. 2505.
      1935. 1601. 1305. 976. 786. 643. 563. 469. 392. 396. 403. 423.
      431. 440. 611. 666. 706. 893. 1128. 1575. 1768. 1643. 1735. 2023.
      2136. 1936. 2176. 2081. 1711. 1345. 985. 735. 434. 284. 208. 143.
      159. 125. 135. 112. 107. 120. 109. 98. 106. 90. 82. 69. 76. 74.
      81. 87. 57. 81. 72. 74. 76. 86. 68. 74. 72. 75. 70. 53. 55. 54.
      57. 48. 32. 30. 26. 34. 24. 13. 8. 6. 9. 10. 8. 7. 5. 6. 9. 5. 7.
      8. 4. 8. 11. 7. 0. 431. 45. 47. 77. 48. 74. 73. 47. 56. 77. 48.
      36. 63. 59. 43. 20. 47. 64. 68. 52. 38. 18. 50. 76. 81. 65. 17. 9.
      5. 65. 92. 120. 122. 61. 21. 12. 77. 98. 86. 41. 14. 4. 143. 114.
      85. 13. 11. 127. 51. 27. 8. 68. 23. 15. 13. 2. 10. 29. 458.</_>
    <_>
      49. 40. 69. 109. 75. 74. 138. 210. 239. 262. 311. 350. 422. 438.
      528. 656. 781. 701. 713. 775. 720. 772. 826. 860. 929. 931. 936.
      852. 877. 847. 843. 762. 738. 718. 731. 716. 753. 712. 647. 729.
      682. 648. 653. 612. 532. 486. 409. 382. 309. 310. 253. 264. 248.
      228. 199. 186. 142. 152. 140. 117. 97. 95. 92. 115. 96. 93. 71.
      71. 77. 80. 103. 84. 75. 88. 83. 103. 106. 102. 82. 99. 109. 117.
      115. 117. 111. 120. 127. 116. 148. 131. 144. 128. 131. 129. 137.
      158. 139. 150. 162. 133. 152. 152. 144. 152. 136. 146. 175. 158.
      179. 184. 153. 166. 188. 206. 207. 203. 230. 274. 262. 289. 309.
      327. 295. 322. 352. 343. 353. 317. 331. 309. 315. 359. 330. 305.
      317. 359. 379. 441. 443. 411. 422. 427. 430. 404. 450. 510. 421.
      537. 508. 511. 546. 535. 562. 574. 608. 584. 559. 576. 544. 516.
      566. 597. 631. 629. 633. 669. 641. 622. 679. 731. 800. 882. 895.
      920. 947. 838. 838. 898. 1043. 1064. 1147. 1184. 1223. 1269. 1258.
      1300. 1310. 1298. 1332. 1373. 1261. 1256. 1174. 1265. 1367. 1532.
      1652. 1860. 1875. 1927. 1897. 1800. 1890. 1747. 1969. 1829. 1866.
      1860. 2082. 2292. 2153. 2421. 2480. 2613. 2585. 2846. 2842. 3190.
      3112. 3014. 2551. 2705. 3344. 3529. 3694. 3740. 3899. 4365. 4431.
      4420. 4388. 4579. 4626. 3882. 3001. 3113. 3570. 3723. 3550. 3734.
      4031. 4643. 5067. 5254. 5051. 4089. 3023. 2991. 2573. 1832. 1142.
      720. 409. 227. 112. 0. 913. 35. 55. 26. 40. 33. 28. 141. 58. 65.
      22. 66. 90. 102. 45. 10. 145. 119. 197. 104. 48. 10. 52. 88. 81.
      131. 39. 11. 2. 71. 44. 51. 23. 13. 2. 10. 56. 39. 39. 11. 3. 4.
      75. 55. 23. 4. 8. 47. 26. 10. 5. 49. 17. 9. 12. 10. 7. 21. 344.</_>
    <_>
      0. 0. 0. 0. 0. 0. 0. 0. 0. 0. 0. 0. 0. 0. 0. 0. 0. 0. 0. 0. 0. 0.
      0. 0. 0. 0. 0. 0. 5. 4. 2. 6. 6. 3. 6. 13. 13. 33. 36. 70. 92.
      134. 206. 329. 487. 615. 702. 701. 658. 681. 760. 690. 674. 698.
      759. 854. 897. 914. 935. 843. 715. 767. 797. 879. 1063. 1174.
      1256. 1390. 1624. 1561. 1421. 1430. 1607. 1564. 1490. 1482. 1358.
      1189. 1094. 947. 857. 849. 755. 677. 623. 574. 541. 596. 601. 635.
      671. 687. 742. 743. 758. 744. 886. 744. 815. 757. 799. 765. 681.
      736. 800. 849. 786. 760. 748. 725. 657. 733. 824. 868. 904. 945.
      932. 950. 911. 988. 1057. 1046. 1087. 1154. 1182. 1184. 1148.
      1146. 1389. 1454. 1367. 1376. 1306. 1292. 1270. 1122. 1102. 1132.
      1298. 1429. 1529. 1655. 1614. 1635. 1661. 1742. 1803. 1900. 1915.
      1955. 1891. 1921. 1964. 2092. 2035. 1990. 1900. 1732. 1783. 1769.
      1851. 1635. 1775. 2121. 2336. 2447. 2374. 1946. 1751. 1464. 1451.
      1471. 1324. 1292. 1151. 1070. 1030. 1019. 902. 805. 771. 538. 418.
      409. 319. 219. 198. 158. 183. 139. 127. 105. 114. 79. 61. 68. 57.
      62. 74. 74. 60. 73. 72. 68. 73. 79. 78. 80. 70. 86. 107. 104. 79.
      95. 72. 64. 61. 57. 42. 44. 43. 34. 26. 25. 29. 26. 24. 15. 16.
      14. 16. 16. 11. 13. 7. 17. 14. 16. 11. 14. 10. 16. 32. 47. 46. 29.
      35. 37. 38. 44. 58. 49. 66. 69. 131. 0. 691. 35. 118. 125. 44. 98.
      130. 51. 48. 80. 84. 19. 51. 62. 34. 19. 44. 34. 94. 126. 54. 14.
      32. 42. 28. 39. 10. 7. 2. 87. 96. 204. 150. 92. 23. 10. 65. 90.
      105. 45. 15. 9. 58. 42. 54. 13. 10. 35. 15. 14. 5. 27. 10. 12. 9.
      2. 3. 25. 304.</_>
    <_>
      0. 0. 0. 0. 0. 0. 0. 0. 0. 0. 0. 0. 1. 3. 7. 17. 26. 44. 51. 87.
      123. 211. 270. 274. 254. 257. 224. 175. 151. 142. 148. 130. 145.
      155. 165. 213. 292. 320. 363. 417. 495. 699. 750. 756. 838. 877.
      926. 1002. 1152. 1331. 1372. 1254. 1208. 1203. 1143. 1055. 997.
      915. 766. 697. 567. 623. 601. 704. 688. 695. 854. 1018. 1369.
      1436. 1640. 1679. 1819. 1913. 1789. 1642. 1433. 1342. 1396. 1372.
      1302. 1229. 1196. 1081. 1002. 983. 925. 1058. 1108. 1118. 1139.
      1014. 987. 963. 1013. 964. 953. 843. 849. 817. 791. 837. 821. 872.
      867. 935. 889. 848. 928. 923. 877. 889. 1000. 1150. 1154. 1123.
      1181. 1261. 1305. 1337. 1416. 1433. 1415. 1364. 1379. 1298. 1324.
      1384. 1571. 1520. 1651. 1700. 1713. 1821. 1706. 1531. 1444. 1412.
      1691. 1925. 1996. 1958. 1916. 1849. 1859. 1963. 2021. 2073. 2091.
      2111. 2002. 2012. 2217. 2090. 1833. 1864. 1789. 1612. 2160. 2159.
      2040. 1655. 1745. 2237. 2496. 2583. 2372. 1830. 1794. 1391. 1383.
      1278. 1207. 1124. 1021. 1033. 1166. 1069. 779. 437. 382. 322. 278.
      246. 189. 225. 199. 114. 70. 51. 52. 43. 56. 49. 55. 60. 51. 67.
      64. 65. 87. 104. 132. 126. 143. 130. 116. 105. 95. 99. 75. 75. 82.
      53. 31. 32. 32. 14. 23. 18. 17. 28. 23. 15. 16. 24. 14. 22. 25.
      21. 20. 16. 21. 18. 23. 22. 34. 18. 18. 31. 26. 28. 24. 37. 47.
      41. 37. 40. 52. 53. 72. 84. 83. 97. 339. 0. 637. 48. 97. 96. 54.
      79. 84. 79. 81. 71. 57. 31. 103. 93. 70. 17. 46. 71. 149. 124. 72.
      16. 41. 50. 51. 60. 30. 16. 6. 75. 58. 152. 114. 66. 21. 18. 50.
      37. 77. 33. 15. 4. 46. 19. 39. 8. 5. 34. 10. 9. 3. 52. 9. 15. 12.
      4. 2. 39. 389.</_>
    <_>
      2. 2. 3. 7. 7. 9. 14. 23. 54. 121. 286. 611. 938. 1266. 1793.
      2135. 2439. 2410. 2305. 1965. 1700. 1666. 1604. 1583. 1454. 1292.
      1221. 1101. 986. 905. 1006. 961. 1034. 1019. 1052. 1054. 1066.
      1121. 1171. 1183. 1180. 1141. 1200. 1301. 1321. 1412. 1374. 1293.
      1240. 1097. 1037. 983. 953. 902. 1001. 908. 834. 809. 766. 723.
      655. 643. 647. 610. 639. 610. 597. 545. 576. 578. 596. 549. 599.
      512. 581. 578. 527. 541. 580. 462. 569. 566. 598. 538. 602. 642.
      699. 709. 698. 663. 648. 615. 647. 587. 638. 630. 684. 714. 742.
      715. 723. 767. 876. 900. 864. 906. 853. 858. 926. 1046. 969. 944.
      1210. 1196. 1263. 1273. 1323. 1413. 1473. 1375. 1204. 1171. 1031.
      1128. 1267. 1313. 1263. 1206. 1249. 1258. 1217. 1262. 1223. 1267.
      1308. 1326. 1452. 1473. 1399. 1381. 1365. 1419. 1361. 1431. 1507.
      1525. 1476. 1419. 1306. 1274. 1305. 1593. 1775. 1836. 1856. 1922.
      2052. 2012. 2297. 2348. 2390. 2291. 2262. 2187. 2297. 2355. 2454.
      2527. 2393. 2529. 2473. 2383. 2544. 2366. 2308. 2016. 1900. 2042.
      2298. 2336. 2320. 2324. 2333. 2528. 2529. 2566. 2824. 2904. 3071.
      3108. 3082. 3284. 3162. 3345. 3511. 3300. 3122. 2901. 2964. 2777.
      2527. 1952. 1880. 2030. 1987. 1835. 1690. 1429. 1446. 1263. 1118.
      1102. 960. 978. 1001. 1030. 1040. 928. 993. 975. 1004. 919. 689.
      644. 550. 395. 337. 351. 362. 326. 250. 183. 109. 86. 78. 66. 54.
      35. 36. 32. 22. 20. 19. 16. 12. 6. 14. 8. 8. 9. 16. 14. 7. 16. 33.
      0. 500. 42. 68. 55. 38. 63. 66. 92. 98. 93. 52. 61. 116. 108. 110.
      30. 68. 84. 161. 130. 81. 20. 35. 56. 65. 70. 37. 22. 6. 44. 46.
      71. 51. 43. 19. 15. 40. 46. 45. 22. 29. 9. 66. 49. 35. 14. 24. 22.
      22. 13. 4. 46. 15. 12. 29. 4. 29. 58. 495.</_>
    <_>
      0. 2. 1. 4. 4. 16. 28. 47. 133. 300. 508. 752. 990. 1286. 1326.
      1198. 1075. 1064. 1147. 1284. 1381. 1378. 1461. 1573. 1671. 1611.
      1534. 1533. 1442. 1393. 1416. 1422. 1368. 1453. 1515. 1521. 1584.
      1415. 1458. 1413. 1359. 1397. 1322. 1217. 1189. 1158. 1126. 1106.
      1165. 1132. 1082. 1106. 1055. 998. 988. 906. 901. 787. 823. 774.
      758. 833. 850. 800. 817. 772. 716. 721. 627. 572. 613. 557. 602.
      518. 608. 594. 586. 653. 585. 564. 650. 592. 598. 608. 650. 688.
      700. 732. 704. 761. 649. 650. 625. 650. 658. 586. 727. 673. 692.
      735. 698. 727. 752. 803. 901. 891. 886. 866. 865. 880. 891. 791.
      1002. 967. 974. 1020. 1192. 1264. 1219. 1150. 1143. 1173. 1168.
      1284. 1407. 1461. 1521. 1349. 1458. 1454. 1329. 1384. 1401. 1455.
      1485. 1478. 1522. 1479. 1630. 1739. 1913. 1912. 1990. 1777. 1753.
      1712. 1576. 1485. 1462. 1334. 1351. 1602. 1737. 1706. 1726. 1830.
      1981. 1837. 2037. 2061. 2023. 2213. 2261. 2457. 2607. 2642. 2643.
      2665. 2665. 2476. 2604. 2671. 2445. 2476. 2248. 2078. 1941. 2233.
      2592. 2684. 2709. 2734. 2916. 3017. 2933. 2935. 2860. 3014. 3222.
      3293. 3341. 3237. 3288. 3333. 3126. 3036. 2771. 2758. 2558. 2533.
      2209. 1740. 1723. 1963. 2147. 2152. 2033. 2009. 1904. 1696. 1573.
      1400. 1291. 1273. 1143. 1076. 1182. 957. 1180. 1182. 1081. 869.
      642. 494. 361. 258. 236. 187. 145. 118. 97. 99. 104. 86. 100. 102.
      85. 80. 62. 64. 35. 32. 19. 15. 17. 17. 15. 12. 16. 13. 14. 19.
      22. 37. 88. 0. 594. 43. 58. 46. 57. 50. 49. 103. 100. 105. 59. 57.
      110. 104. 77. 23. 72. 99. 158. 121. 82. 29. 41. 57. 71. 101. 37.
      43. 11. 45. 42. 55. 34. 32. 16. 18. 37. 24. 27. 13. 12. 5. 53. 29.
      26. 7. 7. 50. 22. 14. 6. 51. 19. 12. 28. 10. 14. 54. 525.</_>
    <_>
      0. 0. 0. 0. 0. 0. 0. 0. 1. 0. 2. 2. 3. 5. 11. 20. 28. 39. 46. 59.
      83. 115. 143. 196. 273. 356. 443. 536. 621. 814. 834. 1019. 997.
      1074. 1041. 1014. 1023. 931. 967. 946. 895. 882. 831. 889. 928.
      941. 963. 1023. 1060. 1104. 1110. 1127. 1126. 1113. 1196. 1195.
      1270. 1295. 1284. 1288. 1180. 1236. 1134. 1127. 1039. 990. 951.
      893. 854. 871. 841. 747. 709. 650. 645. 617. 561. 520. 540. 497.
      427. 473. 431. 432. 423. 391. 401. 391. 359. 348. 325. 370. 361.
      384. 339. 339. 356. 374. 379. 348. 374. 413. 394. 437. 437. 471.
      479. 491. 529. 551. 533. 553. 575. 593. 679. 717. 712. 696. 678.
      688. 648. 654. 695. 706. 707. 721. 723. 668. 755. 648. 644. 713.
      655. 634. 594. 575. 554. 562. 575. 616. 624. 629. 616. 681. 665.
      675. 686. 667. 694. 726. 741. 726. 792. 761. 838. 903. 925. 898.
      982. 1066. 1036. 1004. 1155. 1202. 1215. 1227. 1204. 1265. 1354.
      1318. 1353. 1396. 1347. 1577. 1632. 1551. 1672. 1690. 1665. 1859.
      1829. 1918. 1954. 1934. 2070. 2149. 2136. 2220. 2156. 2243. 2288.
      2283. 2407. 2265. 2360. 2375. 2449. 2511. 2722. 2796. 2787. 2841.
      2944. 2842. 2862. 2695. 2781. 2707. 2660. 2746. 2779. 2780. 2872.
      3088. 3345. 3341. 3512. 3660. 3831. 3633. 3634. 3512. 3486. 3289.
      2894. 2715. 2593. 2342. 2204. 2097. 1903. 1728. 1554. 1427. 1289.
      1207. 1067. 909. 660. 595. 419. 271. 175. 114. 64. 45. 21. 15. 18.
      11. 9. 2. 7. 7. 9. 0. 305. 68. 55. 71. 47. 66. 103. 21. 37. 59.
      88. 42. 30. 35. 40. 27. 26. 45. 38. 38. 36. 24. 62. 35. 51. 36.
      12. 16. 5. 53. 105. 112. 116. 93. 34. 38. 75. 108. 126. 59. 49. 9.
      75. 83. 110. 53. 46. 54. 27. 49. 13. 43. 32. 33. 24. 5. 29. 87.
      586.</_>
    <_>
      0. 0. 0. 0. 0. 0. 0. 0. 0. 0. 0. 0. 0. 0. 0. 0. 0. 0. 0. 0. 0. 0.
      0. 0. 0. 0. 0. 0. 0. 0. 0. 1. 3. 2. 4. 7. 14. 36. 77. 169. 248.
      328. 300. 324. 341. 337. 333. 312. 356. 452. 493. 608. 675. 669.
      774. 757. 836. 911. 984. 983. 729. 835. 722. 804. 777. 750. 714.
      740. 727. 759. 841. 904. 890. 849. 864. 983. 1149. 1366. 1418.
      1218. 1353. 1239. 1303. 1437. 1545. 1485. 1506. 1457. 1332. 1225.
      1105. 1138. 1091. 1265. 1305. 1150. 1189. 1176. 1121. 1149. 982.
      956. 975. 881. 894. 903. 811. 749. 695. 636. 673. 552. 588. 538.
      608. 657. 640. 640. 664. 690. 627. 690. 712. 608. 673. 723. 779.
      770. 872. 734. 726. 725. 743. 622. 662. 662. 679. 790. 874. 931.
      906. 1015. 1079. 1074. 1132. 1005. 1028. 1062. 1188. 1296. 1450.
      1555. 1425. 1282. 1158. 1053. 1183. 1265. 1500. 1616. 1859. 1923.
      1992. 2008. 2043. 2068. 1909. 1982. 1917. 1904. 2025. 2047. 2063.
      2443. 2487. 2066. 2067. 2163. 2277. 2258. 2110. 1634. 1422. 1394.
      1131. 977. 804. 772. 696. 583. 537. 514. 430. 465. 492. 496. 365.
      348. 386. 415. 422. 441. 466. 439. 412. 368. 412. 349. 346. 302.
      265. 272. 283. 241. 129. 66. 30. 32. 23. 24. 15. 24. 20. 19. 23.
      14. 9. 17. 20. 21. 20. 16. 21. 17. 20. 23. 19. 24. 27. 19. 18. 17.
      23. 20. 24. 36. 24. 26. 22. 32. 32. 57. 86. 112. 665. 0. 569. 48.
      123. 152. 51. 101. 138. 67. 52. 57. 63. 25. 63. 82. 52. 14. 28.
      37. 75. 69. 50. 11. 36. 24. 20. 22. 18. 18. 8. 85. 102. 302. 199.
      99. 13. 13. 51. 71. 142. 62. 26. 8. 19. 26. 52. 19. 11. 8. 4. 13.
      2. 22. 8. 15. 4. 2. 6. 25. 362.</_>
    <_>
      0. 0. 0. 0. 0. 0. 0. 0. 0. 0. 0. 0. 0. 0. 0. 0. 0. 0. 0. 0. 0. 0.
      0. 0. 0. 0. 0. 0. 0. 0. 0. 0. 0. 0. 3. 3. 19. 48. 69. 153. 191.
      265. 275. 239. 295. 281. 345. 330. 376. 432. 496. 581. 621. 779.
      727. 737. 757. 762. 773. 762. 660. 786. 738. 759. 767. 776. 739.
      620. 610. 619. 579. 590. 619. 669. 763. 845. 821. 907. 907. 942.
      1002. 1039. 1110. 1144. 1142. 1066. 1080. 1062. 985. 988. 985.
      994. 1093. 1263. 1287. 1253. 1413. 1212. 1177. 1192. 1027. 1053.
      1059. 913. 842. 790. 782. 802. 738. 657. 613. 564. 624. 597. 628.
      633. 650. 694. 666. 676. 670. 649. 658. 625. 644. 645. 746. 684.
      640. 629. 653. 607. 626. 621. 622. 653. 686. 765. 760. 781. 709.
      724. 774. 849. 926. 956. 1033. 1042. 1093. 1129. 1034. 965. 982.
      1020. 1031. 915. 945. 950. 1094. 1268. 1404. 1489. 1675. 1738.
      1851. 1824. 1871. 1989. 2024. 2194. 2313. 2556. 2628. 2708. 2568.
      2351. 2033. 2083. 2710. 3449. 3560. 3053. 2245. 2095. 1845. 1745.
      1449. 1359. 1128. 1072. 964. 891. 906. 728. 659. 556. 517. 478.
      459. 559. 631. 667. 586. 539. 505. 478. 415. 407. 386. 358. 341.
      327. 210. 95. 59. 45. 36. 24. 17. 19. 15. 18. 19. 20. 18. 24. 26.
      16. 25. 21. 23. 19. 20. 20. 15. 18. 21. 18. 23. 19. 21. 16. 21.
      26. 21. 27. 22. 28. 30. 41. 36. 41. 75. 76. 404. 0. 581. 57. 100.
      92. 57. 81. 82. 64. 70. 65. 38. 38. 93. 110. 68. 25. 45. 57. 122.
      122. 85. 9. 44. 29. 53. 81. 38. 22. 5. 73. 68. 147. 97. 54. 24.
      15. 50. 66. 76. 44. 20. 8. 38. 43. 47. 12. 6. 29. 18. 11. 8. 39.
      12. 12. 12. 6. 4. 26. 446.</_>
    <_>
      0. 0. 0. 0. 0. 0. 0. 0. 0. 0. 0. 0. 0. 0. 0. 0. 0. 0. 0. 0. 0. 0.
      0. 0. 0. 0. 0. 0. 0. 2. 3. 7. 6. 8. 14. 20. 47. 69. 94. 109. 159.
      156. 208. 283. 295. 316. 325. 309. 298. 327. 367. 411. 423. 535.
      620. 667. 726. 811. 803. 775. 705. 777. 697. 752. 706. 742. 684.
      650. 650. 707. 648. 713. 709. 692. 711. 836. 921. 1080. 1102.
      1061. 1341. 1327. 1421. 1473. 1390. 1325. 1317. 1254. 1250. 1143.
      1081. 1017. 1014. 1105. 1260. 1253. 1215. 1019. 991. 1002. 878.
      879. 787. 811. 767. 740. 656. 631. 553. 602. 549. 513. 495. 464.
      467. 452. 468. 483. 487. 483. 551. 542. 526. 523. 527. 560. 592.
      593. 660. 651. 651. 620. 591. 548. 494. 503. 562. 565. 631. 647.
      665. 673. 724. 754. 733. 803. 932. 957. 1017. 1014. 996. 964. 937.
      902. 905. 917. 972. 995. 1138. 1205. 1321. 1480. 1581. 1755. 1840.
      1877. 1918. 1983. 1930. 1892. 2018. 2097. 2187. 2302. 2116. 1787.
      1640. 1629. 1907. 2199. 2306. 2393. 2584. 2672. 2639. 2350. 2038.
      1700. 1345. 1218. 1273. 1189. 1087. 932. 799. 691. 576. 491. 506.
      618. 526. 424. 362. 306. 348. 350. 368. 436. 430. 429. 398. 340.
      273. 230. 164. 147. 151. 134. 160. 174. 157. 144. 141. 99. 61. 29.
      15. 5. 8. 11. 5. 11. 9. 6. 7. 8. 12. 10. 13. 10. 7. 18. 15. 16.
      13. 19. 14. 25. 25. 37. 28. 26. 54. 59. 369. 0. 559. 50. 111. 104.
      48. 68. 115. 67. 60. 50. 32. 43. 69. 114. 70. 14. 46. 41. 86. 95.
      65. 16. 45. 29. 35. 40. 32. 13. 6. 82. 79. 296. 177. 73. 22. 7.
      34. 66. 134. 73. 15. 8. 38. 26. 41. 17. 10. 15. 5. 18. 2. 24. 7.
      3. 14. 8. 7. 27. 393.</_>
    <_>
      0. 0. 0. 0. 0. 0. 0. 0. 0. 0. 0. 0. 0. 0. 0. 0. 0. 0. 0. 0. 0. 0.
      0. 0. 0. 0. 0. 0. 0. 0. 0. 0. 0. 0. 0. 2. 1. 5. 4. 9. 28. 50. 96.
      147. 136. 168. 179. 213. 234. 304. 335. 349. 397. 339. 311. 296.
      264. 251. 276. 362. 377. 424. 461. 453. 602. 590. 656. 619. 578.
      630. 675. 846. 1116. 1308. 1458. 1568. 1423. 1514. 1524. 1398.
      1520. 1353. 1224. 1148. 1170. 1102. 938. 907. 870. 732. 634. 571.
      548. 560. 580. 451. 509. 450. 482. 472. 420. 417. 388. 405. 380.
      339. 339. 330. 326. 272. 283. 291. 269. 287. 286. 302. 311. 305.
      304. 293. 355. 328. 420. 407. 425. 378. 370. 403. 412. 424. 456.
      423. 468. 410. 462. 443. 487. 547. 525. 536. 506. 565. 614. 582.
      609. 639. 626. 703. 817. 786. 848. 854. 903. 1083. 984. 888. 858.
      1029. 1224. 1389. 1512. 1561. 1451. 1488. 1599. 1709. 1632. 1555.
      1454. 1462. 1533. 1427. 1344. 1292. 1228. 1039. 1016. 949. 1067.
      1215. 1322. 1413. 1337. 1437. 1542. 1603. 1544. 1306. 1471. 1837.
      1684. 1443. 1261. 1250. 1171. 1128. 1008. 736. 741. 814. 789. 759.
      666. 611. 532. 441. 453. 401. 383. 370. 296. 308. 268. 273. 290.
      261. 265. 237. 322. 233. 178. 152. 181. 177. 177. 122. 116. 179.
      138. 106. 112. 90. 68. 84. 84. 121. 101. 80. 57. 27. 24. 16. 21.
      23. 28. 33. 28. 38. 43. 41. 40. 70. 92. 82. 402. 0. 441. 63. 112.
      151. 47. 88. 130. 35. 42. 62. 64. 24. 34. 53. 51. 26. 23. 11. 43.
      61. 51. 10. 35. 7. 10. 14. 14. 10. 2. 90. 138. 351. 246. 94. 19.
      8. 60. 109. 248. 85. 39. 6. 19. 29. 73. 41. 13. 9. 5. 14. 9. 6. 9.
      7. 4. 1. 2. 26. 370.</_>
    <_>
      0. 0. 0. 0. 0. 0. 0. 0. 0. 0. 0. 0. 0. 0. 0. 0. 0. 0. 0. 0. 0. 0.
      0. 0. 0. 0. 0. 0. 0. 0. 0. 0. 0. 0. 0. 5. 17. 46. 79. 91. 123.
      160. 147. 181. 226. 250. 232. 161. 184. 217. 263. 320. 363. 413.
      484. 506. 542. 670. 696. 711. 624. 647. 659. 648. 632. 724. 672.
      732. 690. 614. 616. 642. 656. 709. 820. 872. 851. 910. 978. 1053.
      1278. 1247. 1315. 1445. 1504. 1427. 1430. 1366. 1279. 1062. 944.
      873. 781. 749. 797. 775. 858. 729. 717. 626. 694. 608. 561. 564.
      557. 583. 579. 553. 490. 498. 491. 425. 456. 483. 523. 499. 511.
      529. 508. 561. 537. 541. 524. 498. 526. 584. 639. 672. 596. 596.
      605. 648. 595. 523. 496. 512. 531. 566. 594. 698. 640. 686. 716.
      785. 755. 792. 815. 825. 896. 889. 844. 923. 883. 919. 937. 928.
      854. 1053. 1185. 1192. 1293. 1396. 1485. 1736. 1675. 1730. 1858.
      1998. 2020. 1985. 1761. 1637. 1569. 1604. 1636. 1674. 1463. 1522.
      1580. 1906. 2116. 2376. 2264. 2141. 2047. 1891. 1731. 1598. 1498.
      1398. 1324. 1202. 1192. 1151. 1142. 967. 638. 449. 424. 422. 472.
      534. 526. 515. 485. 447. 427. 458. 466. 445. 373. 334. 266. 280.
      207. 195. 191. 157. 198. 140. 160. 163. 208. 164. 110. 168. 116.
      44. 21. 12. 7. 11. 10. 15. 6. 10. 13. 14. 16. 13. 7. 9. 24. 15.
      18. 16. 16. 25. 22. 28. 23. 28. 74. 99. 413. 0. 503. 67. 123. 153.
      51. 85. 149. 53. 50. 68. 56. 21. 51. 80. 54. 12. 22. 20. 63. 85.
      44. 16. 31. 15. 17. 31. 12. 13. 2. 82. 110. 331. 235. 89. 19. 17.
      35. 72. 196. 88. 26. 3. 12. 11. 47. 20. 7. 12. 5. 8. 4. 19. 4. 8.
      5. 2. 6. 23. 401.</_>
    <_>
      0. 0. 0. 0. 0. 0. 0. 0. 0. 0. 0. 0. 0. 0. 0. 0. 0. 0. 0. 0. 0. 0.
      0. 0. 0. 0. 0. 0. 0. 0. 0. 0. 0. 0. 0. 0. 0. 0. 0. 0. 0. 1. 1. 0.
      6. 4. 6. 10. 19. 34. 27. 55. 59. 87. 136. 200. 196. 281. 390. 451.
      516. 631. 622. 661. 637. 685. 754. 688. 625. 629. 674. 678. 792.
      802. 826. 879. 973. 974. 1078. 1264. 1413. 1539. 1639. 1807. 1930.
      1968. 2081. 2209. 2087. 2115. 2059. 2103. 1980. 1933. 1942. 1925.
      1793. 1810. 1810. 1688. 1643. 1585. 1625. 1588. 1440. 1385. 1363.
      1355. 1283. 1235. 1306. 1284. 1284. 1304. 1308. 1357. 1264. 1369.
      1430. 1494. 1541. 1596. 1671. 1742. 1854. 1890. 1992. 2125. 2268.
      2226. 2310. 2314. 2541. 2650. 2668. 2816. 3003. 3100. 3100. 3136.
      3344. 3438. 3388. 3318. 3347. 3082. 2932. 2259. 2605. 2550. 2192.
      2065. 1924. 1860. 1660. 1562. 1296. 1153. 1020. 865. 802. 758.
      712. 727. 718. 743. 773. 771. 719. 692. 694. 726. 656. 721. 657.
      630. 647. 592. 501. 530. 565. 454. 458. 496. 484. 531. 502. 542.
      506. 532. 449. 479. 427. 466. 402. 355. 315. 274. 249. 260. 179.
      143. 96. 72. 60. 18. 16. 10. 9. 7. 7. 8. 6. 7. 9. 5. 7. 9. 14. 9.
      11. 7. 13. 7. 10. 7. 10. 8. 4. 15. 14. 11. 13. 8. 13. 10. 14. 7.
      9. 12. 13. 14. 18. 24. 18. 16. 24. 20. 17. 27. 20. 35. 45. 63.
      318. 0. 348. 66. 57. 94. 64. 85. 94. 30. 43. 70. 75. 62. 38. 78.
      69. 42. 32. 57. 45. 53. 53. 30. 51. 53. 40. 29. 24. 25. 8. 44. 74.
      95. 83. 78. 45. 18. 60. 79. 101. 45. 47. 7. 51. 57. 76. 34. 44.
      39. 25. 31. 11. 57. 17. 22. 22. 4. 43. 99. 621.</_>
    <_>
      0. 0. 0. 0. 0. 0. 0. 0. 0. 0. 0. 0. 0. 0. 0. 0. 0. 0. 0. 0. 0. 0.
      0. 0. 0. 0. 0. 0. 0. 0. 0. 0. 0. 0. 0. 0. 0. 0. 2. 1. 2. 4. 5. 5.
      13. 15. 31. 39. 64. 107. 128. 141. 217. 295. 356. 413. 484. 538.
      559. 598. 544. 709. 714. 823. 808. 805. 912. 947. 1068. 1058.
      1210. 1342. 1491. 1684. 1752. 1890. 2033. 2204. 2094. 2127. 2053.
      2021. 1823. 1696. 1660. 1527. 1448. 1346. 1395. 1243. 1195. 1145.
      1047. 1089. 1068. 1077. 1115. 1068. 1095. 1199. 1149. 1190. 1165.
      1148. 1163. 1123. 1171. 1233. 1278. 1296. 1257. 1275. 1276. 1303.
      1369. 1487. 1455. 1571. 1609. 1661. 1760. 1828. 1939. 2019. 2093.
      2216. 2309. 2222. 2179. 2326. 2336. 2479. 2495. 2494. 2449. 2378.
      2330. 2344. 2326. 2295. 2164. 2074. 2134. 1978. 1941. 1902. 1839.
      1534. 1856. 1700. 1567. 1476. 1378. 1240. 1203. 1197. 1138. 1044.
      1112. 1044. 1024. 1075. 1098. 1192. 1185. 1161. 1198. 1255. 1368.
      1305. 1376. 1467. 1485. 1423. 1300. 1111. 999. 971. 930. 839. 890.
      868. 872. 826. 749. 749. 652. 619. 608. 590. 521. 545. 530. 598.
      585. 586. 594. 580. 565. 522. 583. 570. 538. 524. 559. 490. 470.
      469. 435. 450. 410. 396. 358. 315. 219. 130. 100. 62. 51. 66. 65.
      56. 50. 53. 46. 40. 52. 32. 45. 48. 61. 44. 52. 41. 41. 26. 35.
      37. 28. 28. 30. 23. 36. 28. 21. 35. 27. 28. 42. 37. 37. 49. 38.
      44. 199. 0. 298. 85. 49. 109. 52. 80. 98. 25. 60. 51. 50. 30. 21.
      39. 49. 34. 13. 26. 32. 23. 40. 13. 42. 33. 22. 23. 16. 24. 7. 44.
      111. 193. 144. 84. 41. 30. 59. 136. 183. 82. 65. 18. 39. 46. 106.
      57. 57. 26. 22. 31. 11. 30. 19. 33. 14. 5. 33. 83. 598.</_>
    <_>
      0. 0. 0. 0. 0. 0. 0. 0. 0. 0. 0. 0. 0. 0. 0. 2. 1. 2. 3. 8. 7. 13.
      39. 62. 75. 104. 134. 162. 148. 132. 138. 153. 163. 211. 251. 327.
      381. 481. 496. 608. 588. 586. 573. 557. 519. 500. 461. 419. 356.
      373. 335. 348. 355. 410. 471. 571. 626. 772. 960. 1081. 1247.
      1231. 1299. 1410. 1437. 1499. 1480. 1560. 1627. 1631. 1517. 1445.
      1471. 1359. 1351. 1348. 1349. 1516. 1515. 1559. 1573. 1464. 1576.
      1550. 1517. 1396. 1493. 1310. 1296. 1221. 1105. 972. 846. 825.
      684. 616. 625. 583. 574. 522. 517. 516. 506. 532. 520. 531. 495.
      548. 536. 530. 585. 585. 571. 542. 596. 593. 561. 581. 579. 606.
      638. 669. 701. 667. 772. 769. 820. 872. 873. 948. 980. 1100. 1049.
      1014. 1085. 1136. 1121. 1173. 1244. 1389. 1443. 1549. 1623. 1625.
      1694. 1723. 1652. 1690. 1825. 1786. 1815. 1984. 2023. 2164. 2058.
      2178. 2339. 2126. 2373. 2394. 2582. 2694. 2851. 3004. 2942. 2916.
      2989. 2958. 2925. 2902. 2797. 2925. 2929. 2940. 3206. 3243. 3249.
      3217. 3249. 3181. 3318. 3312. 3206. 3373. 3365. 3409. 3309. 3245.
      3273. 3133. 3233. 3297. 3222. 3244. 3193. 3167. 2936. 2934. 3099.
      3035. 2674. 2192. 1766. 1536. 1309. 1170. 1123. 1158. 1255. 1040.
      927. 638. 426. 234. 176. 94. 72. 25. 18. 22. 15. 20. 20. 22. 28.
      26. 36. 29. 26. 41. 40. 34. 35. 40. 53. 55. 62. 53. 74. 89. 106.
      143. 205. 436. 694. 987. 878. 579. 326. 164. 43. 7. 2. 0. 0. 0.
      510. 55. 52. 54. 65. 57. 45. 110. 84. 55. 24. 78. 113. 91. 50. 17.
      89. 98. 163. 110. 69. 20. 49. 80. 86. 102. 46. 39. 18. 49. 35. 48.
      36. 35. 13. 10. 47. 40. 20. 17. 18. 6. 41. 11. 16. 13. 17. 32. 14.
      18. 3. 58. 25. 17. 30. 7. 14. 50. 675.</_>
    <_>
      0. 0. 0. 0. 0. 0. 0. 0. 0. 0. 0. 0. 0. 0. 0. 0. 0. 0. 2. 5. 8. 22.
      43. 85. 121. 153. 194. 275. 275. 345. 366. 404. 451. 455. 487.
      521. 467. 563. 615. 704. 687. 719. 525. 517. 506. 445. 507. 621.
      707. 853. 1036. 1089. 1148. 1278. 1400. 1594. 1509. 1624. 1617.
      1715. 1807. 2033. 2190. 2518. 2416. 2433. 2386. 2431. 2383. 2217.
      2178. 1933. 1800. 1623. 1549. 1364. 1363. 1329. 1252. 1355. 1294.
      1199. 1201. 1129. 942. 922. 789. 826. 697. 654. 662. 646. 591.
      533. 553. 509. 516. 487. 542. 504. 460. 485. 521. 484. 510. 533.
      519. 563. 615. 619. 660. 637. 753. 692. 730. 838. 849. 876. 887.
      862. 886. 875. 945. 894. 878. 868. 964. 1023. 1171. 1104. 1189.
      1308. 1398. 1522. 1679. 1725. 1843. 1948. 1915. 2175. 2193. 2276.
      2404. 2626. 2489. 2402. 2476. 2511. 2773. 2782. 2570. 2609. 2686.
      2745. 2638. 2843. 2927. 2433. 3127. 3301. 3281. 3243. 3202. 3405.
      3396. 3545. 3610. 3735. 3652. 3586. 3601. 3760. 3904. 4085. 4391.
      4720. 4706. 4801. 4635. 4456. 4554. 4070. 3322. 2772. 2271. 1778.
      1312. 1225. 1212. 1144. 1139. 1175. 1101. 887. 570. 386. 265. 126.
      100. 46. 42. 41. 38. 25. 39. 23. 27. 39. 46. 47. 47. 51. 39. 61.
      67. 66. 104. 122. 144. 175. 208. 175. 131. 162. 337. 1002. 1938.
      2334. 2090. 1305. 803. 585. 302. 184. 68. 15. 0. 1. 1. 0. 0. 0. 0.
      0. 0. 0. 0. 0. 0. 0. 0. 0. 0. 0. 0. 0. 534. 45. 30. 40. 52. 33.
      22. 81. 69. 38. 15. 77. 132. 87. 30. 15. 78. 124. 193. 146. 80.
      15. 75. 68. 75. 131. 62. 25. 12. 53. 48. 28. 25. 24. 22. 23. 43.
      34. 29. 18. 12. 3. 53. 34. 31. 6. 11. 52. 21. 14. 8. 71. 20. 24.
      35. 8. 21. 59. 630.</_>
    <_>
      0. 0. 0. 0. 0. 0. 0. 0. 0. 0. 0. 0. 0. 0. 0. 0. 0. 0. 0. 0. 0. 0.
      0. 0. 0. 0. 0. 0. 0. 0. 0. 0. 0. 0. 0. 0. 0. 0. 0. 0. 0. 0. 0. 0.
      0. 0. 0. 0. 3. 10. 17. 49. 104. 220. 400. 711. 951. 1082. 1259.
      1188. 1182. 1074. 1132. 899. 781. 595. 424. 389. 342. 335. 340.
      497. 617. 756. 826. 907. 938. 988. 955. 775. 589. 586. 605. 720.
      679. 738. 678. 666. 531. 496. 431. 427. 346. 335. 335. 309. 334.
      323. 330. 403. 427. 429. 462. 476. 469. 469. 447. 531. 509. 514.
      441. 516. 541. 548. 540. 547. 554. 572. 542. 555. 525. 615. 681.
      605. 641. 734. 859. 906. 954. 1054. 1039. 1039. 1039. 1044. 1003.
      1039. 1149. 1285. 1464. 1576. 1793. 1973. 2147. 2581. 2492. 2643.
      2694. 2500. 2651. 2736. 2862. 3079. 3113. 3029. 2943. 3014. 3083.
      3167. 3802. 3933. 3976. 4136. 3973. 3650. 3345. 2943. 2814. 2945.
      2940. 2676. 2691. 2675. 2550. 2460. 2358. 2520. 2574. 2373. 2037.
      1664. 1680. 1598. 1705. 1656. 1773. 1634. 1814. 1907. 2019. 2043.
      1730. 1343. 1019. 849. 731. 642. 622. 534. 524. 521. 419. 361.
      341. 280. 249. 214. 221. 244. 166. 101. 73. 58. 61. 69. 59. 63.
      45. 39. 30. 26. 23. 44. 26. 27. 17. 26. 32. 28. 26. 29. 26. 19.
      13. 12. 12. 11. 9. 7. 4. 12. 18. 9. 3. 3. 3. 6. 5. 2. 2. 0. 2. 0.
      0. 0. 0. 0. 751. 71. 99. 101. 61. 85. 70. 82. 69. 66. 54. 63. 66.
      55. 68. 26. 68. 55. 69. 50. 53. 25. 47. 51. 35. 41. 21. 16. 6. 88.
      79. 108. 70. 56. 13. 12. 62. 50. 52. 28. 19. 8. 47. 25. 37. 23.
      23. 27. 11. 13. 6. 34. 17. 5. 16. 4. 10. 45. 532.</_>
    <_>
      129. 98. 116. 126. 146. 158. 210. 266. 275. 350. 378. 429. 506.
      563. 680. 810. 934. 995. 984. 1050. 1175. 1188. 1192. 1327. 1328.
      1273. 1324. 1338. 1368. 1401. 1317. 1255. 1371. 1276. 1128. 1126.
      1066. 1018. 898. 890. 899. 841. 887. 847. 809. 843. 805. 791. 801.
      880. 892. 858. 796. 710. 634. 627. 587. 562. 535. 534. 446. 465.
      440. 444. 463. 435. 405. 341. 380. 317. 312. 325. 296. 286. 310.
      300. 283. 314. 301. 305. 305. 332. 334. 313. 365. 348. 337. 373.
      371. 376. 341. 405. 370. 390. 401. 373. 442. 466. 451. 499. 476.
      471. 473. 551. 549. 507. 575. 538. 625. 635. 691. 615. 749. 596.
      670. 629. 596. 632. 562. 587. 600. 632. 701. 679. 694. 744. 768.
      689. 749. 738. 772. 785. 844. 742. 844. 828. 785. 834. 894. 876.
      809. 878. 936. 896. 861. 850. 913. 925. 960. 928. 988. 1040. 1037.
      1028. 1062. 967. 979. 1024. 1147. 1128. 1112. 1054. 1026. 972.
      1036. 1105. 1188. 1246. 1319. 1189. 1267. 1254. 1245. 1250. 1298.
      1351. 1399. 1428. 1456. 1484. 1482. 1646. 1640. 1724. 1756. 1713.
      1655. 1653. 1670. 1610. 1487. 1496. 1561. 1483. 1544. 1603. 1569.
      1711. 1752. 1716. 1733. 1827. 1768. 1616. 1641. 1631. 2036. 2187.
      2181. 2117. 2044. 2271. 2321. 2395. 2514. 2749. 2620. 2654. 2660.
      2771. 2738. 2682. 2825. 2643. 2603. 2929. 2814. 2900. 3179. 3439.
      3278. 2990. 2705. 2268. 1837. 1823. 1771. 1694. 1600. 1330. 1081.
      1212. 1406. 1149. 987. 794. 546. 339. 148. 36. 21. 21. 6. 3. 0. 0.
      761. 69. 118. 95. 49. 92. 77. 53. 58. 74. 48. 44. 52. 47. 46. 19.
      47. 57. 61. 43. 48. 14. 48. 56. 44. 48. 22. 13. 7. 96. 68. 111.
      83. 66. 14. 13. 83. 48. 70. 32. 22. 10. 76. 52. 45. 17. 18. 39.
      17. 21. 7. 33. 13. 12. 14. 8. 17. 36. 493.</_>
    <_>
      51. 75. 102. 131. 172. 202. 261. 292. 305. 292. 286. 448. 447.
      529. 587. 736. 790. 898. 993. 1008. 1051. 1041. 1062. 1145. 1167.
      1211. 1229. 1319. 1288. 1327. 1362. 1276. 1346. 1239. 1316. 1209.
      1067. 1070. 977. 978. 940. 876. 932. 895. 951. 867. 857. 786. 759.
      743. 777. 828. 810. 774. 777. 747. 738. 650. 582. 594. 537. 542.
      504. 443. 499. 457. 434. 446. 411. 416. 441. 383. 396. 372. 356.
      317. 285. 312. 304. 272. 315. 300. 302. 298. 333. 297. 342. 382.
      383. 439. 421. 416. 405. 364. 445. 360. 404. 384. 401. 431. 480.
      440. 488. 453. 519. 497. 512. 511. 527. 554. 483. 490. 658. 654.
      700. 680. 702. 665. 702. 671. 650. 670. 676. 710. 712. 779. 815.
      798. 840. 732. 812. 784. 892. 801. 894. 803. 826. 823. 879. 885.
      865. 866. 970. 954. 890. 840. 801. 888. 866. 904. 847. 918. 965.
      1056. 949. 1009. 997. 1042. 1117. 1119. 1121. 1129. 1054. 1073.
      1118. 1225. 1253. 1283. 1215. 1272. 1359. 1357. 1373. 1377. 1348.
      1413. 1355. 1306. 1371. 1403. 1304. 1316. 1308. 1318. 1311. 1420.
      1442. 1401. 1416. 1409. 1285. 1351. 1364. 1463. 1487. 1618. 1625.
      1632. 1654. 1660. 1669. 1627. 1529. 1275. 1328. 1304. 1535. 1620.
      1675. 1803. 1850. 2078. 2101. 2079. 2236. 2292. 2356. 2613. 2935.
      2990. 3077. 3115. 3190. 3502. 3505. 3244. 2873. 2710. 2900. 2963.
      3162. 2990. 2724. 2426. 2303. 2366. 2313. 2037. 1815. 1454. 1261.
      1526. 1672. 1822. 1664. 1580. 1093. 1022. 731. 342. 113. 46. 22.
      6. 0. 0. 875. 53. 123. 94. 60. 81. 62. 82. 67. 42. 39. 43. 59. 51.
      49. 16. 65. 61. 58. 41. 37. 7. 55. 57. 39. 41. 15. 16. 2. 84. 71.
      173. 79. 61. 24. 19. 48. 55. 77. 20. 18. 10. 50. 44. 27. 9. 10.
      28. 17. 14. 2. 36. 14. 13. 15. 7. 11. 30. 488.</_>
    <_>
      0. 0. 0. 0. 0. 0. 0. 0. 0. 0. 0. 0. 0. 0. 0. 0. 0. 0. 0. 0. 0. 0.
      0. 1. 0. 6. 11. 31. 91. 189. 302. 447. 533. 622. 741. 796. 893.
      1067. 1227. 1448. 1613. 1636. 1738. 1715. 1555. 1431. 1230. 1187.
      1110. 860. 780. 616. 534. 486. 494. 457. 436. 439. 377. 332. 335.
      344. 437. 459. 477. 594. 654. 773. 749. 846. 919. 950. 978. 913.
      1017. 1065. 1091. 1091. 1052. 926. 943. 882. 906. 833. 883. 884.
      949. 984. 1111. 1079. 1050. 1174. 1234. 1196. 1037. 1009. 929.
      782. 779. 756. 803. 840. 785. 779. 782. 678. 664. 666. 673. 652.
      611. 648. 607. 599. 612. 614. 687. 704. 724. 722. 712. 798. 803.
      826. 931. 936. 995. 1086. 1109. 1161. 1126. 1279. 1293. 1406.
      1475. 1467. 1489. 1497. 1636. 1786. 1962. 2173. 2235. 2328. 2163.
      2199. 2359. 2492. 2534. 2684. 2629. 2958. 3034. 3063. 2725. 2919.
      2848. 2726. 2843. 3004. 3020. 3195. 3399. 3600. 3880. 4144. 4487.
      4295. 4165. 3844. 3825. 4024. 4250. 4189. 4338. 4196. 4004. 3762.
      3668. 3841. 3772. 4134. 4344. 4206. 4345. 4237. 4456. 4300. 3444.
      2614. 2021. 1639. 1301. 805. 571. 485. 534. 581. 583. 397. 283.
      217. 219. 113. 43. 16. 6. 10. 14. 6. 9. 12. 5. 15. 10. 8. 10. 8.
      13. 5. 16. 15. 14. 15. 6. 10. 13. 10. 15. 27. 29. 25. 26. 16. 22.
      36. 33. 41. 40. 72. 132. 261. 355. 441. 560. 542. 429. 358. 275.
      212. 208. 154. 103. 90. 38. 0. 675. 55. 81. 68. 54. 66. 47. 96.
      66. 56. 42. 77. 103. 62. 53. 12. 79. 96. 123. 96. 56. 18. 42. 69.
      68. 88. 50. 23. 5. 66. 60. 82. 63. 47. 6. 28. 53. 41. 40. 27. 17.
      6. 36. 21. 36. 12. 14. 37. 15. 4. 5. 50. 20. 23. 10. 13. 18. 51.
      517.</_>
    <_>
      0. 0. 0. 0. 0. 0. 0. 0. 0. 0. 0. 0. 0. 0. 2. 1. 1. 5. 4. 7. 17.
      27. 40. 49. 52. 108. 154. 208. 294. 322. 302. 268. 328. 281. 239.
      230. 194. 171. 132. 117. 94. 125. 144. 143. 212. 211. 290. 319.
      381. 408. 384. 382. 398. 398. 447. 420. 518. 594. 671. 725. 746.
      783. 831. 888. 896. 875. 850. 819. 750. 755. 693. 716. 680. 648.
      566. 567. 541. 475. 530. 535. 537. 554. 527. 528. 530. 526. 531.
      463. 527. 522. 549. 520. 520. 497. 501. 529. 451. 517. 486. 510.
      480. 538. 569. 568. 506. 596. 516. 515. 540. 527. 479. 487. 476.
      540. 491. 492. 475. 569. 514. 507. 488. 530. 495. 481. 452. 404.
      407. 412. 352. 321. 398. 318. 330. 305. 348. 303. 285. 304. 338.
      306. 269. 330. 349. 347. 359. 352. 428. 383. 435. 425. 496. 530.
      480. 508. 570. 553. 620. 564. 594. 594. 685. 700. 746. 715. 794.
      799. 954. 987. 1029. 1099. 1085. 1117. 1256. 1231. 1250. 1354.
      1370. 1443. 1571. 1569. 1537. 1654. 1620. 1479. 1414. 1296. 1197.
      1230. 1171. 1168. 1136. 1136. 1076. 1131. 1164. 1299. 1379. 1362.
      1334. 1298. 1343. 1440. 1448. 1476. 1488. 1554. 1393. 1522. 1581.
      1551. 1407. 1504. 1299. 1235. 1132. 1019. 974. 876. 863. 862. 840.
      846. 805. 902. 807. 782. 813. 856. 844. 756. 706. 600. 582. 559.
      558. 514. 522. 492. 501. 575. 561. 561. 594. 612. 653. 711. 642.
      687. 776. 821. 950. 1055. 1519. 1448. 3627. 0. 845. 14. 20. 12.
      37. 13. 12. 77. 77. 43. 18. 65. 114. 99. 51. 13. 83. 117. 265.
      175. 99. 22. 34. 65. 86. 224. 109. 36. 13. 18. 15. 6. 8. 10. 9.
      19. 24. 8. 4. 3. 4. 2. 43. 25. 18. 4. 7. 32. 15. 4. 5. 94. 31. 27.
      44. 11. 21. 59. 436.</_>
    <_>
      0. 0. 0. 0. 0. 0. 0. 0. 0. 0. 0. 0. 0. 0. 0. 0. 0. 1. 4. 4. 10.
      13. 35. 44. 72. 129. 175. 263. 320. 345. 381. 272. 254. 214. 185.
      175. 136. 125. 105. 109. 95. 80. 71. 66. 64. 79. 109. 128. 115.
      182. 203. 231. 245. 295. 311. 310. 306. 348. 366. 401. 405. 490.
      621. 587. 704. 719. 741. 754. 840. 855. 833. 859. 863. 832. 850.
      812. 775. 759. 745. 694. 699. 693. 643. 625. 595. 658. 572. 614.
      619. 582. 563. 574. 538. 571. 570. 542. 614. 534. 593. 541. 549.
      575. 521. 541. 542. 510. 519. 526. 602. 580. 519. 503. 545. 524.
      519. 513. 536. 461. 505. 468. 526. 492. 512. 449. 501. 512. 530.
      436. 446. 364. 395. 391. 398. 390. 404. 368. 341. 378. 338. 319.
      329. 336. 284. 317. 363. 383. 404. 335. 425. 475. 466. 472. 553.
      578. 528. 648. 655. 670. 680. 653. 634. 656. 667. 759. 806. 800.
      862. 849. 857. 955. 1036. 1074. 1018. 1009. 1069. 1100. 1099.
      1119. 1186. 1325. 1400. 1513. 1387. 1375. 1434. 1345. 1416. 1392.
      1337. 1201. 1264. 1334. 1297. 1261. 1290. 1281. 1344. 1302. 1330.
      1437. 1477. 1470. 1539. 1452. 1567. 1683. 1715. 1613. 1454. 1320.
      1063. 939. 848. 794. 891. 909. 871. 853. 873. 886. 830. 825. 769.
      812. 804. 864. 839. 742. 776. 806. 826. 783. 733. 713. 644. 580.
      574. 558. 491. 564. 488. 539. 498. 508. 570. 575. 650. 717. 817.
      859. 978. 1239. 1810. 1584. 4101. 0. 847. 22. 16. 10. 28. 18. 15.
      70. 53. 44. 27. 72. 100. 71. 46. 14. 72. 143. 259. 175. 68. 11.
      38. 68. 117. 243. 117. 40. 9. 20. 11. 10. 10. 10. 4. 18. 17. 14.
      10. 4. 12. 4. 40. 29. 18. 3. 10. 48. 15. 9. 6. 97. 26. 21. 51. 11.
      27. 53. 423.</_>
    <_>
      1536. 561. 637. 746. 865. 1018. 1106. 1356. 1385. 1574. 1746.
      1942. 2061. 2239. 2408. 2474. 2789. 2880. 3024. 3055. 3164. 3154.
      3042. 2971. 2790. 2747. 2417. 2337. 2058. 1922. 1704. 1615. 1445.
      1430. 1317. 1203. 1213. 1055. 1021. 1024. 1039. 1031. 1001. 999.
      990. 1106. 1033. 903. 903. 869. 786. 848. 801. 868. 884. 852. 816.
      868. 909. 961. 1002. 1069. 1127. 1152. 1282. 1345. 1535. 1615.
      1760. 1861. 2017. 2171. 2293. 2350. 2432. 2475. 2607. 2787. 2714.
      2767. 3115. 3130. 3097. 3176. 3268. 3492. 3385. 3575. 3875. 3939.
      4117. 4197. 4363. 4520. 4740. 4612. 5471. 5580. 5835. 5948. 5947.
      5924. 5796. 5775. 5383. 4807. 4150. 3440. 2719. 2146. 1576. 1071.
      901. 497. 304. 165. 147. 90. 74. 50. 35. 30. 27. 18. 21. 25. 24.
      17. 19. 16. 18. 16. 10. 14. 11. 20. 13. 14. 13. 14. 15. 12. 18.
      10. 17. 10. 7. 15. 16. 16. 19. 17. 13. 21. 11. 17. 14. 10. 9. 17.
      18. 13. 12. 14. 16. 15. 12. 12. 13. 18. 8. 7. 13. 15. 9. 9. 14. 8.
      13. 11. 10. 15. 16. 7. 11. 8. 18. 4. 8. 8. 11. 12. 9. 4. 7. 8. 10.
      4. 6. 7. 5. 6. 13. 7. 9. 5. 9. 6. 9. 11. 3. 11. 11. 5. 2. 5. 13.
      11. 5. 6. 8. 3. 5. 4. 7. 3. 1. 10. 3. 5. 4. 7. 4. 6. 1. 7. 7. 8.
      9. 9. 6. 5. 8. 5. 6. 8. 6. 15. 19. 18. 17. 19. 26. 48. 97. 0. 368.
      40. 55. 76. 54. 63. 73. 61. 69. 69. 62. 47. 94. 123. 64. 20. 51.
      84. 134. 106. 82. 24. 51. 68. 68. 88. 45. 21. 10. 32. 62. 121. 91.
      63. 23. 19. 69. 62. 97. 28. 22. 3. 53. 53. 55. 19. 17. 32. 30. 19.
      4. 79. 11. 22. 18. 2. 22. 51. 495.</_>
    <_>
      1771. 627. 591. 678. 873. 976. 1136. 1129. 1260. 1302. 1440. 1677.
      1873. 2050. 2306. 2357. 2557. 2724. 2818. 2792. 2986. 2881. 2849.
      2826. 2740. 2519. 2412. 2083. 1946. 1813. 1512. 1471. 1385. 1289.
      1188. 1189. 1205. 1056. 1006. 1013. 1024. 929. 911. 912. 887. 867.
      996. 944. 939. 901. 944. 872. 847. 821. 793. 878. 871. 825. 913.
      944. 931. 1000. 1109. 1171. 1293. 1290. 1461. 1556. 1666. 1825.
      1984. 2084. 2270. 2279. 2743. 2816. 3060. 3068. 2854. 2900. 3129.
      3227. 3221. 3304. 3341. 3446. 3572. 3670. 3830. 3940. 3986. 4093.
      4238. 4380. 4511. 4505. 5670. 5580. 5942. 5916. 5991. 5810. 5550.
      5327. 4952. 4421. 3636. 3005. 2349. 1713. 1352. 879. 732. 447.
      255. 146. 109. 52. 42. 23. 18. 23. 12. 18. 17. 16. 23. 14. 18. 7.
      10. 10. 9. 13. 13. 13. 9. 9. 14. 11. 12. 7. 11. 11. 5. 13. 8. 13.
      8. 9. 5. 11. 14. 11. 7. 7. 11. 9. 7. 12. 11. 10. 6. 8. 9. 10. 5.
      9. 4. 7. 7. 9. 11. 5. 7. 8. 8. 9. 13. 8. 11. 11. 9. 8. 7. 10. 10.
      9. 6. 9. 4. 4. 8. 5. 4. 3. 4. 2. 4. 5. 1. 3. 3. 2. 4. 3. 8. 6. 4.
      2. 1. 6. 2. 6. 3. 6. 3. 6. 6. 8. 3. 6. 2. 4. 5. 3. 6. 4. 4. 3. 1.
      9. 6. 7. 4. 6. 2. 3. 6. 6. 6. 1. 6. 5. 4. 3. 5. 5. 10. 4. 8. 18.
      20. 24. 69. 0. 410. 44. 55. 78. 56. 79. 86. 61. 85. 79. 66. 44.
      75. 96. 75. 25. 50. 64. 143. 92. 59. 25. 49. 75. 89. 109. 49. 23.
      7. 54. 61. 104. 77. 58. 20. 29. 53. 45. 95. 36. 22. 3. 46. 39. 47.
      16. 14. 43. 26. 20. 2. 66. 18. 19. 24. 4. 12. 44. 499.</_>
    <_>
      12. 1. 12. 4. 13. 12. 28. 16. 20. 39. 38. 38. 61. 76. 77. 99. 88.
      123. 140. 156. 175. 188. 241. 294. 381. 409. 479. 514. 556. 625.
      781. 830. 837. 696. 745. 809. 963. 926. 867. 764. 590. 515. 454.
      419. 422. 380. 463. 447. 515. 578. 533. 527. 486. 498. 439. 432.
      408. 325. 271. 242. 190. 234. 232. 201. 213. 267. 237. 292. 262.
      239. 270. 285. 299. 353. 384. 383. 446. 491. 449. 425. 450. 437.
      463. 506. 534. 531. 498. 459. 560. 542. 545. 506. 562. 573. 528.
      481. 595. 571. 620. 626. 642. 668. 668. 692. 746. 769. 775. 753.
      691. 717. 752. 699. 881. 833. 912. 921. 893. 948. 1029. 1061. 962.
      990. 968. 929. 1014. 1075. 1138. 1150. 1479. 1372. 1367. 1327.
      1366. 1456. 1500. 1429. 1565. 1543. 1613. 1697. 1815. 1955. 1944.
      1925. 1814. 1884. 1974. 1938. 1850. 1787. 1558. 1790. 1974. 2298.
      2516. 2617. 2612. 2464. 2554. 2648. 2811. 2725. 2664. 2777. 3123.
      3458. 3839. 4569. 5376. 6022. 6347. 6055. 6209. 6203. 6080. 5411.
      4214. 3584. 4174. 4276. 2760. 1502. 944. 721. 537. 421. 356. 328.
      266. 193. 119. 103. 61. 37. 26. 19. 22. 20. 21. 20. 24. 21. 30.
      20. 31. 23. 18. 19. 24. 16. 21. 14. 24. 15. 12. 14. 23. 17. 12.
      19. 18. 16. 14. 18. 16. 12. 23. 16. 10. 18. 12. 11. 13. 20. 17.
      14. 16. 20. 31. 45. 55. 59. 70. 85. 89. 61. 37. 38. 62. 62. 70.
      66. 90. 110. 120. 0. 490. 50. 82. 106. 46. 86. 104. 46. 45. 85.
      102. 42. 47. 36. 50. 35. 69. 69. 66. 47. 27. 8. 49. 59. 63. 46.
      12. 16. 4. 94. 96. 186. 113. 80. 19. 16. 86. 79. 116. 44. 19. 4.
      73. 84. 66. 20. 9. 48. 21. 20. 7. 48. 20. 17. 10. 2. 13. 33. 414.</_>
    <_>
      0. 0. 0. 0. 0. 0. 0. 0. 0. 0. 0. 0. 0. 0. 0. 0. 0. 0. 0. 0. 0. 0.
      0. 8. 13. 24. 62. 149. 199. 201. 384. 590. 676. 640. 788. 781.
      685. 676. 568. 520. 484. 524. 628. 587. 514. 525. 681. 720. 815.
      744. 732. 674. 707. 717. 711. 745. 767. 818. 800. 787. 725. 645.
      662. 635. 667. 711. 685. 765. 769. 754. 782. 803. 843. 722. 760.
      756. 741. 742. 625. 616. 669. 623. 666. 689. 598. 580. 610. 553.
      582. 642. 677. 732. 668. 729. 666. 677. 764. 711. 737. 804. 716.
      687. 676. 687. 732. 737. 774. 838. 836. 782. 632. 713. 866. 875.
      862. 849. 917. 918. 950. 965. 994. 1024. 1064. 1154. 1178. 1245.
      1300. 1262. 1342. 1299. 1442. 1493. 1379. 1326. 1156. 1083. 1020.
      1176. 1260. 1427. 1573. 1561. 1688. 1585. 1636. 1650. 1760. 1493.
      1646. 1810. 1711. 1927. 1832. 1785. 1819. 1897. 1958. 1876. 1949.
      1915. 1434. 1146. 1336. 1572. 1618. 1450. 1335. 1309. 1348. 1425.
      1495. 1407. 1291. 1199. 844. 570. 419. 321. 273. 189. 162. 133.
      118. 116. 93. 83. 79. 79. 42. 58. 63. 50. 53. 42. 51. 51. 53. 48.
      41. 40. 34. 43. 32. 32. 34. 43. 30. 23. 25. 28. 22. 29. 24. 29.
      37. 30. 22. 33. 29. 25. 33. 39. 29. 42. 26. 32. 22. 26. 36. 31.
      37. 28. 27. 36. 39. 34. 25. 34. 45. 42. 46. 42. 55. 48. 53. 54.
      53. 40. 25. 49. 41. 34. 38. 40. 202. 0. 468. 34. 75. 96. 42. 65.
      100. 94. 67. 68. 48. 41. 100. 90. 65. 21. 68. 76. 162. 120. 53.
      22. 44. 50. 49. 89. 36. 14. 5. 55. 52. 204. 183. 54. 14. 16. 38.
      33. 77. 53. 23. 7. 71. 44. 21. 13. 6. 41. 19. 12. 2. 50. 20. 13.
      15. 2. 7. 30. 407.</_>
    <_>
      0. 0. 0. 0. 0. 0. 0. 0. 0. 0. 0. 0. 0. 0. 0. 0. 0. 0. 0. 0. 0. 1.
      2. 12. 51. 143. 309. 424. 434. 462. 527. 612. 609. 617. 567. 649.
      618. 609. 661. 534. 549. 629. 596. 670. 733. 759. 729. 743. 712.
      755. 755. 690. 750. 758. 727. 846. 822. 899. 775. 667. 597. 495.
      459. 384. 475. 516. 425. 474. 488. 529. 541. 499. 510. 493. 610.
      558. 553. 553. 525. 501. 584. 550. 497. 486. 527. 498. 485. 488.
      533. 545. 560. 648. 647. 695. 683. 728. 842. 816. 809. 745. 734.
      746. 731. 733. 840. 937. 902. 891. 878. 842. 796. 743. 911. 841.
      910. 936. 893. 939. 983. 1058. 1124. 1168. 1214. 1288. 1273. 1443.
      1394. 1298. 1518. 1462. 1478. 1361. 1250. 1212. 1123. 1000. 922.
      907. 1013. 1134. 1272. 1414. 1391. 1393. 1580. 1573. 1526. 1395.
      1452. 1535. 1331. 1509. 1400. 1497. 1496. 1587. 1624. 1702. 1692.
      1559. 1262. 1077. 1145. 1332. 1461. 1399. 1420. 1538. 1542. 1430.
      1240. 994. 795. 732. 681. 543. 396. 362. 319. 291. 248. 256. 227.
      210. 170. 139. 150. 133. 81. 84. 71. 43. 43. 46. 53. 37. 38. 34.
      42. 31. 23. 27. 19. 26. 24. 35. 31. 32. 34. 25. 28. 25. 29. 30.
      31. 29. 25. 29. 25. 29. 30. 30. 29. 31. 24. 21. 32. 25. 26. 19.
      14. 23. 21. 21. 28. 22. 26. 21. 16. 22. 25. 18. 15. 23. 28. 18.
      26. 38. 41. 42. 22. 30. 38. 47. 196. 0. 522. 37. 85. 92. 32. 60.
      123. 77. 78. 50. 49. 40. 85. 93. 53. 15. 44. 53. 116. 126. 81. 21.
      37. 37. 35. 75. 33. 17. 5. 67. 79. 251. 203. 48. 14. 13. 44. 58.
      130. 50. 27. 14. 40. 15. 45. 19. 7. 36. 11. 18. 6. 40. 15. 11. 3.
      1. 6. 31. 371.</_>
    <_>
      0. 0. 0. 0. 0. 0. 0. 0. 0. 0. 0. 0. 0. 0. 0. 0. 0. 0. 0. 0. 0. 0.
      2. 3. 1. 9. 13. 41. 74. 135. 176. 219. 349. 417. 500. 639. 690.
      633. 503. 377. 374. 465. 584. 564. 551. 588. 562. 662. 809. 787.
      708. 645. 634. 563. 635. 715. 732. 715. 613. 664. 637. 694. 707.
      757. 728. 671. 584. 715. 719. 699. 777. 777. 799. 793. 798. 755.
      729. 701. 627. 640. 593. 638. 548. 556. 497. 578. 543. 558. 599.
      621. 557. 635. 612. 677. 707. 648. 822. 767. 744. 720. 663. 708.
      676. 689. 691. 660. 713. 690. 814. 782. 702. 623. 836. 790. 869.
      816. 844. 873. 948. 941. 1038. 1025. 1114. 1175. 1255. 1226. 1306.
      1256. 1367. 1278. 1225. 1211. 1265. 1202. 1238. 1057. 934. 1025.
      1183. 1213. 1158. 1265. 1328. 1371. 1429. 1517. 1581. 1441. 1577.
      1630. 1588. 1669. 1794. 1729. 1756. 1720. 1670. 1611. 1639. 1570.
      1572. 1401. 1570. 1665. 1624. 1498. 1418. 1325. 1245. 1224. 1268.
      1341. 1246. 1337. 1289. 1098. 762. 370. 223. 233. 157. 174. 133.
      112. 96. 77. 67. 75. 82. 56. 62. 54. 58. 44. 44. 53. 35. 38. 52.
      33. 41. 48. 41. 45. 48. 49. 48. 32. 47. 44. 32. 23. 33. 30. 25.
      25. 24. 22. 30. 34. 28. 22. 15. 28. 25. 24. 34. 21. 26. 24. 25.
      18. 25. 26. 28. 31. 27. 22. 35. 60. 49. 29. 21. 26. 30. 41. 36.
      31. 30. 36. 50. 40. 37. 113. 261. 0. 482. 43. 59. 95. 42. 48. 89.
      77. 64. 78. 45. 40. 93. 97. 93. 21. 58. 66. 124. 150. 81. 12. 34.
      50. 44. 56. 30. 12. 7. 52. 48. 202. 190. 69. 10. 14. 36. 50. 88.
      58. 22. 3. 57. 46. 33. 9. 11. 33. 16. 6. 3. 42. 18. 11. 14. 10.
      16. 25. 462.</_>
    <_>
      0. 0. 0. 0. 0. 0. 0. 0. 0. 0. 0. 0. 0. 0. 0. 0. 0. 0. 0. 0. 0. 0.
      0. 0. 2. 11. 37. 119. 254. 359. 353. 296. 358. 544. 699. 613. 576.
      450. 480. 460. 459. 383. 459. 436. 476. 589. 640. 666. 759. 734.
      660. 540. 540. 546. 494. 615. 702. 771. 734. 629. 576. 573. 538.
      592. 648. 649. 549. 556. 465. 484. 484. 472. 465. 403. 386. 371.
      416. 415. 480. 477. 526. 558. 609. 593. 519. 501. 475. 507. 551.
      521. 541. 555. 570. 603. 590. 539. 660. 644. 617. 627. 633. 732.
      755. 809. 787. 785. 816. 730. 748. 688. 680. 703. 853. 845. 872.
      993. 1056. 1073. 1103. 1099. 1113. 1242. 1156. 1132. 1071. 1145.
      1241. 1094. 1435. 1274. 1401. 1398. 1434. 1401. 1246. 1021. 956.
      1026. 1069. 1140. 1277. 1177. 1153. 1070. 1140. 1061. 1115. 1010.
      1214. 1239. 1170. 1204. 1334. 1363. 1359. 1489. 1538. 1389. 1376.
      1270. 1102. 947. 1186. 1479. 1635. 1643. 1666. 1589. 1649. 1598.
      1575. 1640. 1477. 1337. 1372. 1273. 1199. 1189. 1216. 1069. 802.
      685. 590. 460. 373. 355. 327. 250. 270. 249. 216. 186. 192. 140.
      122. 116. 55. 40. 31. 32. 41. 33. 21. 33. 25. 29. 25. 30. 28. 36.
      28. 44. 23. 38. 42. 37. 31. 32. 25. 42. 41. 32. 38. 27. 27. 40.
      30. 29. 21. 25. 19. 29. 33. 24. 31. 24. 25. 23. 30. 34. 21. 37.
      20. 21. 29. 23. 33. 64. 47. 43. 15. 35. 40. 49. 217. 0. 441. 37.
      74. 110. 37. 48. 86. 87. 72. 69. 34. 42. 97. 109. 77. 7. 58. 55.
      127. 120. 90. 18. 22. 49. 39. 55. 25. 13. 0. 55. 88. 284. 217. 64.
      11. 3. 46. 62. 155. 73. 23. 3. 37. 38. 35. 17. 13. 27. 5. 6. 4.
      38. 17. 6. 20. 5. 10. 17. 367.</_>
    <_>
      0. 0. 0. 0. 0. 0. 0. 0. 0. 0. 0. 0. 0. 0. 0. 1. 5. 11. 15. 37. 53.
      76. 106. 154. 227. 263. 483. 503. 534. 602. 683. 809. 854. 863.
      1031. 1243. 1314. 1277. 1100. 955. 841. 698. 666. 641. 610. 653.
      640. 648. 620. 596. 553. 488. 495. 470. 409. 399. 416. 436. 445.
      394. 355. 433. 480. 540. 569. 667. 671. 710. 852. 859. 924. 975.
      1049. 1024. 990. 1103. 1135. 1164. 1188. 1152. 1242. 1362. 1403.
      1425. 1432. 1397. 1513. 1485. 1618. 1748. 1841. 1948. 1983. 1958.
      1894. 1867. 1913. 1835. 1890. 1968. 2092. 2183. 2056. 1949. 1701.
      1593. 1408. 1360. 1315. 1186. 1157. 1149. 1184. 1225. 1295. 1361.
      1446. 1484. 1713. 1687. 1782. 1959. 2232. 2337. 2488. 2687. 2641.
      2514. 2462. 2354. 2515. 2456. 2317. 2272. 2248. 2300. 2296. 2242.
      2178. 2654. 2635. 2657. 2682. 2664. 2218. 2118. 1918. 1423. 1429.
      1365. 1119. 1194. 1043. 979. 928. 1074. 1091. 1119. 1181. 1352.
      1374. 1381. 1444. 1404. 1301. 1336. 1319. 1308. 1065. 950. 766.
      704. 650. 638. 514. 395. 286. 254. 175. 117. 74. 50. 38. 35. 27.
      30. 27. 31. 25. 24. 14. 34. 14. 19. 15. 9. 17. 15. 9. 13. 14. 5.
      4. 9. 1. 4. 4. 2. 1. 1. 0. 2. 3. 0. 1. 0. 0. 0. 0. 0. 0. 0. 1. 0.
      0. 1. 0. 0. 0. 0. 0. 0. 0. 0. 0. 0. 0. 0. 0. 0. 0. 0. 0. 0. 0. 0.
      0. 0. 0. 0. 0. 0. 0. 0. 0. 0. 452. 98. 75. 113. 56. 82. 76. 24.
      32. 50. 40. 40. 38. 36. 46. 17. 24. 30. 35. 32. 31. 13. 45. 26.
      16. 21. 20. 12. 7. 58. 105. 187. 101. 79. 25. 22. 71. 107. 157.
      72. 53. 15. 62. 59. 80. 46. 35. 17. 16. 16. 11. 25. 18. 28. 12. 9.
      19. 78. 674.</_>
    <_>
      0. 0. 0. 0. 0. 0. 0. 0. 0. 0. 0. 0. 0. 0. 0. 0. 0. 0. 0. 0. 1. 0.
      2. 3. 5. 8. 51. 94. 138. 181. 225. 285. 444. 697. 829. 1130. 1532.
      1620. 1480. 1317. 1298. 1410. 1571. 1530. 1702. 1759. 1826. 1534.
      1440. 1360. 1355. 1256. 1219. 1164. 1161. 1200. 1223. 1154. 1092.
      981. 1001. 946. 962. 963. 992. 833. 780. 857. 815. 721. 747. 700.
      644. 569. 652. 590. 519. 521. 454. 376. 427. 366. 349. 330. 345.
      356. 332. 338. 322. 272. 266. 253. 257. 229. 247. 228. 261. 260.
      276. 279. 263. 222. 248. 268. 257. 262. 254. 227. 230. 244. 211.
      250. 278. 277. 272. 292. 303. 308. 321. 294. 321. 309. 372. 459.
      464. 462. 425. 453. 476. 457. 434. 435. 472. 542. 581. 657. 714.
      676. 816. 833. 791. 819. 779. 855. 916. 1077. 1179. 1250. 1318.
      1360. 1463. 1576. 1421. 1221. 1020. 1013. 1104. 1220. 1325. 1345.
      1393. 1407. 1340. 1238. 1089. 1107. 979. 1108. 1331. 1504. 1489.
      1445. 1501. 1365. 1366. 1282. 1197. 1017. 815. 895. 1120. 1208.
      1219. 1027. 912. 722. 630. 576. 518. 515. 593. 666. 707. 725. 742.
      830. 691. 613. 597. 494. 466. 511. 545. 562. 553. 609. 529. 468.
      448. 413. 413. 488. 495. 523. 572. 528. 518. 585. 636. 542. 455.
      506. 508. 560. 565. 426. 369. 324. 272. 282. 286. 363. 381. 447.
      379. 319. 372. 395. 290. 287. 190. 85. 40. 47. 51. 30. 8. 11. 2.
      1. 2. 2. 1. 0. 0. 0. 386. 25. 42. 56. 52. 47. 71. 89. 83. 50. 45.
      45. 132. 145. 63. 20. 49. 77. 299. 318. 112. 28. 25. 32. 55. 153.
      100. 39. 11. 15. 20. 89. 121. 72. 17. 23. 19. 21. 44. 24. 14. 4.
      18. 12. 12. 12. 14. 11. 7. 7. 2. 52. 19. 11. 29. 9. 21. 40. 436.</_>
    <_>
      0. 0. 0. 0. 0. 0. 0. 0. 0. 0. 0. 0. 0. 0. 0. 0. 0. 0. 0. 0. 0. 1.
      0. 1. 0. 2. 5. 3. 7. 9. 19. 12. 19. 38. 55. 85. 182. 415. 769.
      973. 1144. 1384. 1494. 1593. 1530. 1429. 1073. 989. 799. 749. 651.
      657. 630. 693. 802. 856. 940. 984. 953. 824. 814. 857. 853. 811.
      835. 917. 904. 838. 855. 755. 814. 724. 739. 646. 714. 686. 689.
      702. 818. 814. 833. 864. 787. 774. 667. 719. 655. 646. 586. 638.
      551. 585. 572. 591. 565. 526. 567. 502. 415. 404. 334. 392. 415.
      381. 411. 433. 449. 391. 387. 402. 358. 369. 429. 406. 396. 489.
      429. 523. 527. 542. 466. 442. 390. 478. 519. 493. 527. 590. 760.
      807. 718. 779. 904. 847. 840. 836. 792. 772. 728. 771. 818. 910.
      866. 918. 964. 989. 998. 1009. 1086. 1201. 1112. 983. 1080. 1212.
      1460. 1623. 1621. 1647. 1825. 1855. 1954. 2033. 2130. 2064. 1503.
      1553. 1562. 1807. 1896. 1877. 1921. 1823. 1865. 1883. 1785. 1602.
      1374. 1215. 1169. 1351. 1372. 1306. 1330. 1320. 1302. 1221. 1122.
      1074. 1061. 992. 1039. 1255. 1411. 1510. 1686. 1779. 1843. 1754.
      1736. 1478. 1224. 1082. 1072. 1161. 1221. 1298. 1298. 1241. 1164.
      964. 910. 823. 727. 717. 891. 954. 955. 958. 1054. 1028. 968. 918.
      770. 702. 593. 584. 543. 540. 531. 573. 522. 575. 548. 516. 519.
      545. 681. 776. 770. 909. 889. 751. 537. 385. 396. 437. 379. 365.
      357. 262. 150. 49. 53. 47. 38. 0. 395. 25. 29. 26. 46. 25. 24. 91.
      88. 43. 25. 66. 139. 119. 53. 17. 67. 100. 382. 296. 117. 26. 31.
      53. 91. 237. 109. 47. 14. 29. 27. 19. 25. 21. 9. 21. 31. 14. 13.
      11. 6. 3. 38. 25. 21. 8. 10. 19. 12. 7. 4. 73. 23. 18. 36. 6. 18.
      57. 459.</_>
    <_>
      0. 0. 0. 0. 0. 0. 1. 0. 0. 0. 0. 0. 1. 1. 0. 3. 4. 3. 2. 3. 5. 8.
      7. 12. 13. 19. 7. 38. 27. 27. 38. 44. 78. 201. 480. 745. 1041.
      1078. 1170. 1311. 1366. 1133. 1046. 909. 794. 756. 809. 771. 893.
      902. 966. 981. 1125. 1234. 1279. 1276. 1098. 1122. 1136. 1238.
      1263. 1255. 1147. 1055. 1085. 1010. 961. 933. 902. 981. 1088.
      1015. 1086. 960. 1023. 908. 859. 725. 693. 650. 639. 664. 628.
      620. 578. 544. 523. 467. 500. 457. 453. 434. 476. 476. 453. 467.
      468. 475. 460. 460. 455. 474. 458. 459. 470. 543. 556. 601. 564.
      584. 552. 558. 566. 560. 620. 609. 586. 625. 613. 570. 555. 601.
      561. 528. 581. 582. 632. 546. 577. 650. 614. 659. 729. 742. 779.
      703. 755. 778. 873. 1007. 1119. 1209. 1425. 1555. 1679. 1675.
      1537. 1345. 1418. 1519. 1876. 2111. 2248. 2188. 2068. 1949. 1844.
      1646. 1496. 1417. 1566. 1770. 1833. 1962. 1480. 1996. 1838. 1806.
      1596. 1275. 1173. 1203. 1420. 1440. 1485. 1574. 1626. 1746. 1688.
      1585. 1429. 1316. 1376. 1598. 1669. 1693. 1726. 1593. 1546. 1512.
      1278. 970. 939. 1004. 1109. 1060. 881. 798. 707. 677. 720. 628.
      666. 681. 795. 896. 896. 911. 880. 904. 832. 785. 831. 948. 976.
      937. 804. 865. 784. 742. 724. 603. 618. 638. 696. 812. 768. 745.
